<?xml version="1.0"?>
<MethodSetup Method="BDT::BDT">
  <GeneralInfo>
    <Info name="TMVA Release" value="4.2.1 [262657]"/>
    <Info name="ROOT Release" value="6.18/00 [397824]"/>
    <Info name="Creator" value="shin"/>
    <Info name="Date" value="Thu Aug 11 10:02:14 2022"/>
    <Info name="Host" value="Linux lcgapp-centos7-x86-64-34.cern.ch 3.10.0-957.10.1.el7.x86_64 #1 SMP Mon Mar 18 15:06:45 UTC 2019 x86_64 x86_64 x86_64 GNU/Linux"/>
    <Info name="Dir" value="/pool/condor/dir_31478/output"/>
    <Info name="Training events" value="53096"/>
    <Info name="TrainingTime" value="7.80453229e+01"/>
    <Info name="AnalysisType" value="Classification"/>
  </GeneralInfo>
  <Options>
    <Option name="V" modified="Yes">False</Option>
    <Option name="VerbosityLevel" modified="No">Default</Option>
    <Option name="VarTransform" modified="No">None</Option>
    <Option name="H" modified="Yes">False</Option>
    <Option name="CreateMVAPdfs" modified="No">False</Option>
    <Option name="IgnoreNegWeightsInTraining" modified="No">False</Option>
    <Option name="NTrees" modified="Yes">500</Option>
    <Option name="MaxDepth" modified="No">3</Option>
    <Option name="MinNodeSize" modified="No">5%</Option>
    <Option name="nCuts" modified="No">20</Option>
    <Option name="BoostType" modified="Yes">Grad</Option>
    <Option name="AdaBoostR2Loss" modified="No">quadratic</Option>
    <Option name="UseBaggedBoost" modified="No">False</Option>
    <Option name="Shrinkage" modified="Yes">1.000000e-01</Option>
    <Option name="AdaBoostBeta" modified="No">5.000000e-01</Option>
    <Option name="UseRandomisedTrees" modified="No">False</Option>
    <Option name="UseNvars" modified="No">4</Option>
    <Option name="UsePoissonNvars" modified="No">True</Option>
    <Option name="BaggedSampleFraction" modified="No">6.000000e-01</Option>
    <Option name="UseYesNoLeaf" modified="No">True</Option>
    <Option name="NegWeightTreatment" modified="No">pray</Option>
    <Option name="Css" modified="No">1.000000e+00</Option>
    <Option name="Cts_sb" modified="No">1.000000e+00</Option>
    <Option name="Ctb_ss" modified="No">1.000000e+00</Option>
    <Option name="Cbb" modified="No">1.000000e+00</Option>
    <Option name="NodePurityLimit" modified="No">5.000000e-01</Option>
    <Option name="SeparationType" modified="No">giniindex</Option>
    <Option name="RegressionLossFunctionBDTG" modified="No">huber</Option>
    <Option name="HuberQuantile" modified="No">7.000000e-01</Option>
    <Option name="DoBoostMonitor" modified="Yes">True</Option>
    <Option name="UseFisherCuts" modified="No">False</Option>
    <Option name="MinLinCorrForFisher" modified="No">8.000000e-01</Option>
    <Option name="UseExclusiveVars" modified="No">False</Option>
    <Option name="DoPreselection" modified="No">False</Option>
    <Option name="SigToBkgFraction" modified="No">1.000000e+00</Option>
    <Option name="PruneMethod" modified="No">nopruning</Option>
    <Option name="PruneStrength" modified="No">0.000000e+00</Option>
    <Option name="PruningValFraction" modified="No">5.000000e-01</Option>
    <Option name="SkipNormalization" modified="No">False</Option>
    <Option name="nEventsMin" modified="No">0</Option>
    <Option name="UseBaggedGrad" modified="No">False</Option>
    <Option name="GradBaggingFraction" modified="No">6.000000e-01</Option>
    <Option name="UseNTrainEvents" modified="No">0</Option>
    <Option name="NNodesMax" modified="No">0</Option>
  </Options>
  <Variables NVar="12">
    <Variable VarIndex="0" Expression="PV_npvsGood" Label="PV_npvsGood" Title="PV_npvsGood" Unit="" Internal="PV_npvsGood" Type="I" Min="1.00000000e+00" Max="4.60000000e+01"/>
    <Variable VarIndex="1" Expression="JetPuppi_puId_dR2Mean" Label="JetPuppi_puId_dR2Mean" Title="JetPuppi_puId_dR2Mean" Unit="" Internal="JetPuppi_puId_dR2Mean" Type="F" Min="-1.00000000e+00" Max="6.15234375e-02"/>
    <Variable VarIndex="2" Expression="JetPuppi_puId_frac01" Label="JetPuppi_puId_frac01" Title="JetPuppi_puId_frac01" Unit="" Internal="JetPuppi_puId_frac01" Type="F" Min="-1.00000000e+00" Max="1.00000000e+00"/>
    <Variable VarIndex="3" Expression="JetPuppi_puId_frac02" Label="JetPuppi_puId_frac02" Title="JetPuppi_puId_frac02" Unit="" Internal="JetPuppi_puId_frac02" Type="F" Min="-1.00000000e+00" Max="1.01562500e+00"/>
    <Variable VarIndex="4" Expression="JetPuppi_puId_frac03" Label="JetPuppi_puId_frac03" Title="JetPuppi_puId_frac03" Unit="" Internal="JetPuppi_puId_frac03" Type="F" Min="-1.00000000e+00" Max="1.01562500e+00"/>
    <Variable VarIndex="5" Expression="JetPuppi_puId_frac04" Label="JetPuppi_puId_frac04" Title="JetPuppi_puId_frac04" Unit="" Internal="JetPuppi_puId_frac04" Type="F" Min="-1.00000000e+00" Max="4.80468750e-01"/>
    <Variable VarIndex="6" Expression="JetPuppi_puId_majW" Label="JetPuppi_puId_majW" Title="JetPuppi_puId_majW" Unit="" Internal="JetPuppi_puId_majW" Type="F" Min="-1.00000000e+00" Max="2.38281250e-01"/>
    <Variable VarIndex="7" Expression="JetPuppi_puId_minW" Label="JetPuppi_puId_minW" Title="JetPuppi_puId_minW" Unit="" Internal="JetPuppi_puId_minW" Type="F" Min="-1.00000000e+00" Max="1.56250000e-01"/>
    <Variable VarIndex="8" Expression="JetPuppi_puId_jetR" Label="JetPuppi_puId_jetR" Title="JetPuppi_puId_jetR" Unit="" Internal="JetPuppi_puId_jetR" Type="F" Min="-1.00000000e+00" Max="1.00000000e+00"/>
    <Variable VarIndex="9" Expression="JetPuppi_nConstituents" Label="JetPuppi_nConstituents" Title="JetPuppi_nConstituents" Unit="" Internal="JetPuppi_nConstituents" Type="I" Min="1.00000000e+00" Max="9.00000000e+00"/>
    <Variable VarIndex="10" Expression="JetPuppi_puId_ptD" Label="JetPuppi_puId_ptD" Title="JetPuppi_puId_ptD" Unit="" Internal="JetPuppi_puId_ptD" Type="F" Min="-1.00000000e+00" Max="1.00000000e+00"/>
    <Variable VarIndex="11" Expression="JetPuppi_puId_pull" Label="JetPuppi_puId_pull" Title="JetPuppi_puId_pull" Unit="" Internal="JetPuppi_puId_pull" Type="F" Min="-1.00000000e+00" Max="1.97753906e-02"/>
  </Variables>
  <Spectators NSpec="2">
    <Spectator SpecIndex="0" Expression="JetPuppi_pt" Label="JetPuppi_pt" Title="F" Unit="" Internal="JetPuppi_pt" Type="F" Min="1.00000000e+01" Max="2.90750000e+02"/>
    <Spectator SpecIndex="1" Expression="JetPuppi_eta" Label="JetPuppi_eta" Title="F" Unit="" Internal="JetPuppi_eta" Type="F" Min="-5.00000000e+00" Max="5.00000000e+00"/>
  </Spectators>
  <Classes NClass="2">
    <Class Name="Signal" Index="0"/>
    <Class Name="Background" Index="1"/>
  </Classes>
  <Transformations NTransformations="0"/>
  <MVAPdfs/>
  <Weights NTrees="500" AnalysisType="1">
    <BinaryTree type="DecisionTree" boostWeight="1.0000000000000000e+00" itree="0">
      <Node pos="s" depth="0" NCoef="0" IVar="2" Cut="4.7619048506021500e-02" cType="1" res="1.5876902267336845e-02" rms="4.4408446550369263e-01" purity="5.0000000000000000e-01" nType="0">
        <Node pos="l" depth="1" NCoef="0" IVar="6" Cut="1.7001488804817200e-01" cType="1" res="-1.0359055548906326e-01" rms="4.4898301362991333e-01" purity="3.7117022275924683e-01" nType="0">
          <Node pos="l" depth="2" NCoef="0" IVar="0" Cut="1.6000000000000000e+01" cType="1" res="-8.0578863620758057e-02" rms="4.9346432089805603e-01" purity="4.1942113637924194e-01" nType="0">
            <Node pos="l" depth="3" NCoef="0" IVar="-1" Cut="0.0000000000000000e+00" cType="1" res="-1.1414309032261372e-02" rms="4.9673214554786682e-01" purity="4.4292846322059631e-01" nType="-99"/>
            <Node pos="r" depth="3" NCoef="0" IVar="-1" Cut="0.0000000000000000e+00" cType="1" res="-2.1100917831063271e-02" rms="4.8874205350875854e-01" purity="3.9449542760848999e-01" nType="-99"/>
          </Node>
          <Node pos="r" depth="2" NCoef="0" IVar="6" Cut="1.8805803358554840e-01" cType="1" res="-1.6012248396873474e-01" rms="4.5047426223754883e-01" purity="3.2042506337165833e-01" nType="0">
            <Node pos="l" depth="3" NCoef="0" IVar="-1" Cut="0.0000000000000000e+00" cType="1" res="-3.1592689454555511e-02" rms="4.7439175844192505e-01" purity="3.4203654527664185e-01" nType="-99"/>
            <Node pos="r" depth="3" NCoef="0" IVar="-1" Cut="0.0000000000000000e+00" cType="1" res="-3.9951235055923462e-02" rms="4.5836389064788818e-01" purity="3.0024382472038269e-01" nType="-99"/>
          </Node>
        </Node>
        <Node pos="r" depth="1" NCoef="0" IVar="2" Cut="9.5507812500000000e-01" cType="1" res="4.8507373780012131e-02" rms="4.3709620833396912e-01" purity="5.3518760204315186e-01" nType="0">
          <Node pos="l" depth="2" NCoef="0" IVar="2" Cut="6.9698661565780640e-01" cType="1" res="1.3663902878761292e-01" rms="4.5230954885482788e-01" purity="6.4891582727432251e-01" nType="0">
            <Node pos="l" depth="3" NCoef="0" IVar="-1" Cut="0.0000000000000000e+00" cType="1" res="1.9806165248155594e-02" rms="4.9009478092193604e-01" purity="5.9903085231781006e-01" nType="-99"/>
            <Node pos="r" depth="3" NCoef="0" IVar="-1" Cut="0.0000000000000000e+00" cType="1" res="6.3796132802963257e-02" rms="3.8503420352935791e-01" purity="8.1898069381713867e-01" nType="-99"/>
          </Node>
          <Node pos="r" depth="2" NCoef="0" IVar="0" Cut="1.6000000000000000e+01" cType="1" res="-1.3734096661210060e-02" rms="4.9981135129928589e-01" purity="4.8626589775085449e-01" nType="0">
            <Node pos="l" depth="3" NCoef="0" IVar="-1" Cut="0.0000000000000000e+00" cType="1" res="1.1747960001230240e-02" rms="4.9653765559196472e-01" purity="5.5873978137969971e-01" nType="-99"/>
            <Node pos="r" depth="3" NCoef="0" IVar="-1" Cut="0.0000000000000000e+00" cType="1" res="-1.0948826558887959e-02" rms="4.9699404835700989e-01" purity="4.4525587558746338e-01" nType="-99"/>
          </Node>
        </Node>
      </Node>
    </BinaryTree>
    <BinaryTree type="DecisionTree" boostWeight="1.0000000000000000e+00" itree="1">
      <Node pos="s" depth="0" NCoef="0" IVar="2" Cut="4.7619048506021500e-02" cType="1" res="1.5138131566345692e-02" rms="4.4184458255767822e-01" purity="5.0000000000000000e-01" nType="0">
        <Node pos="l" depth="1" NCoef="0" IVar="6" Cut="1.7001488804817200e-01" cType="1" res="-9.2835284769535065e-02" rms="4.4802793860435486e-01" purity="3.7117022275924683e-01" nType="0">
          <Node pos="l" depth="2" NCoef="0" IVar="0" Cut="1.6000000000000000e+01" cType="1" res="-7.2521865367889404e-02" rms="4.9335154891014099e-01" purity="4.1942113637924194e-01" nType="0">
            <Node pos="l" depth="3" NCoef="0" IVar="-1" Cut="0.0000000000000000e+00" cType="1" res="-1.0274266824126244e-02" rms="4.9673214554786682e-01" purity="4.4292846322059631e-01" nType="-99"/>
            <Node pos="r" depth="3" NCoef="0" IVar="-1" Cut="0.0000000000000000e+00" cType="1" res="-1.8999597057700157e-02" rms="4.8874205350875854e-01" purity="3.9449542760848999e-01" nType="-99"/>
          </Node>
          <Node pos="r" depth="2" NCoef="0" IVar="0" Cut="1.6000000000000000e+01" cType="1" res="-1.6162545979022980e-01" rms="4.6655127406120300e-01" purity="3.2042506337165833e-01" nType="0">
            <Node pos="l" depth="3" NCoef="0" IVar="-1" Cut="0.0000000000000000e+00" cType="1" res="-2.8335485607385635e-02" rms="4.7381806373596191e-01" purity="3.4059041738510132e-01" nType="-99"/>
            <Node pos="r" depth="3" NCoef="0" IVar="-1" Cut="0.0000000000000000e+00" cType="1" res="-3.6212023347616196e-02" rms="4.5869266986846924e-01" purity="3.0119633674621582e-01" nType="-99"/>
          </Node>
        </Node>
        <Node pos="r" depth="1" NCoef="0" IVar="2" Cut="9.5507812500000000e-01" cType="1" res="4.4629205018281937e-02" rms="4.3551093339920044e-01" purity="5.3518760204315186e-01" nType="0">
          <Node pos="l" depth="2" NCoef="0" IVar="6" Cut="7.4096679687500000e-02" cType="1" res="1.2339160591363907e-01" rms="4.5031690597534180e-01" purity="6.4891582727432251e-01" nType="0">
            <Node pos="l" depth="3" NCoef="0" IVar="-1" Cut="0.0000000000000000e+00" cType="1" res="5.7131648063659668e-02" rms="3.9116585254669189e-01" purity="8.0988222360610962e-01" nType="-99"/>
            <Node pos="r" depth="3" NCoef="0" IVar="-1" Cut="0.0000000000000000e+00" cType="1" res="1.7105082049965858e-02" rms="4.9001160264015198e-01" purity="5.9706997871398926e-01" nType="-99"/>
          </Node>
          <Node pos="r" depth="2" NCoef="0" IVar="0" Cut="1.7000000000000000e+01" cType="1" res="-1.2360725551843643e-02" rms="4.9924612045288086e-01" purity="4.8626589775085449e-01" nType="0">
            <Node pos="l" depth="3" NCoef="0" IVar="-1" Cut="0.0000000000000000e+00" cType="1" res="8.9737288653850555e-03" rms="4.9741837382316589e-01" purity="5.4903227090835571e-01" nType="-99"/>
            <Node pos="r" depth="3" NCoef="0" IVar="-1" Cut="0.0000000000000000e+00" cType="1" res="-1.0940360836684704e-02" rms="4.9636644124984741e-01" purity="4.3983057141304016e-01" nType="-99"/>
          </Node>
        </Node>
      </Node>
    </BinaryTree>
    <BinaryTree type="DecisionTree" boostWeight="1.0000000000000000e+00" itree="2">
      <Node pos="s" depth="0" NCoef="0" IVar="2" Cut="4.7619048506021500e-02" cType="1" res="1.4360531233251095e-02" rms="4.4003507494926453e-01" purity="5.0000000000000000e-01" nType="0">
        <Node pos="l" depth="1" NCoef="0" IVar="6" Cut="1.7001488804817200e-01" cType="1" res="-8.3299033343791962e-02" rms="4.4728627800941467e-01" purity="3.7117022275924683e-01" nType="0">
          <Node pos="l" depth="2" NCoef="0" IVar="0" Cut="1.6000000000000000e+01" cType="1" res="-6.5272487699985504e-02" rms="4.9326020479202271e-01" purity="4.1942113637924194e-01" nType="0">
            <Node pos="l" depth="3" NCoef="0" IVar="-1" Cut="0.0000000000000000e+00" cType="1" res="-9.2501435428857803e-03" rms="4.9673214554786682e-01" purity="4.4292846322059631e-01" nType="-99"/>
            <Node pos="r" depth="3" NCoef="0" IVar="-1" Cut="0.0000000000000000e+00" cType="1" res="-1.7120515927672386e-02" rms="4.8874202370643616e-01" purity="3.9449542760848999e-01" nType="-99"/>
          </Node>
          <Node pos="r" depth="2" NCoef="0" IVar="6" Cut="1.8805803358554840e-01" cType="1" res="-1.2912178039550781e-01" rms="4.4938352704048157e-01" purity="3.2042506337165833e-01" nType="0">
            <Node pos="l" depth="3" NCoef="0" IVar="-1" Cut="0.0000000000000000e+00" cType="1" res="-2.5315204635262489e-02" rms="4.7431227564811707e-01" purity="3.4203654527664185e-01" nType="-99"/>
            <Node pos="r" depth="3" NCoef="0" IVar="-1" Cut="0.0000000000000000e+00" cType="1" res="-3.2898470759391785e-02" rms="4.5828869938850403e-01" purity="3.0024382472038269e-01" nType="-99"/>
          </Node>
        </Node>
        <Node pos="r" depth="1" NCoef="0" IVar="2" Cut="9.5507812500000000e-01" cType="1" res="4.1034553200006485e-02" rms="4.3423151969909668e-01" purity="5.3518760204315186e-01" nType="0">
          <Node pos="l" depth="2" NCoef="0" IVar="2" Cut="6.9698661565780640e-01" cType="1" res="1.1146511137485504e-01" rms="4.4860127568244934e-01" purity="6.4891582727432251e-01" nType="0">
            <Node pos="l" depth="3" NCoef="0" IVar="-1" Cut="0.0000000000000000e+00" cType="1" res="1.5756046399474144e-02" rms="4.8960441350936890e-01" purity="5.9903085231781006e-01" nType="-99"/>
            <Node pos="r" depth="3" NCoef="0" IVar="-1" Cut="0.0000000000000000e+00" cType="1" res="5.3449515253305435e-02" rms="3.8413712382316589e-01" purity="8.1898069381713867e-01" nType="-99"/>
          </Node>
          <Node pos="r" depth="2" NCoef="0" IVar="0" Cut="2.2000000000000000e+01" cType="1" res="-1.1124966666102409e-02" rms="4.9878498911857605e-01" purity="4.8626589775085449e-01" nType="0">
            <Node pos="l" depth="3" NCoef="0" IVar="-1" Cut="0.0000000000000000e+00" cType="1" res="3.3175442367792130e-03" rms="4.9897980690002441e-01" purity="5.1696336269378662e-01" nType="-99"/>
            <Node pos="r" depth="3" NCoef="0" IVar="-1" Cut="0.0000000000000000e+00" cType="1" res="-1.7669305205345154e-02" rms="4.9005103111267090e-01" purity="4.0075296163558960e-01" nType="-99"/>
          </Node>
        </Node>
      </Node>
    </BinaryTree>
    <BinaryTree type="DecisionTree" boostWeight="1.0000000000000000e+00" itree="3">
      <Node pos="s" depth="0" NCoef="0" IVar="2" Cut="4.7619048506021500e-02" cType="1" res="1.3129233382642269e-02" rms="4.3866595625877380e-01" purity="5.0000000000000000e-01" nType="0">
        <Node pos="l" depth="1" NCoef="0" IVar="6" Cut="1.7001488804817200e-01" cType="1" res="-7.4597939848899841e-02" rms="4.4665849208831787e-01" purity="3.7117022275924683e-01" nType="0">
          <Node pos="l" depth="2" NCoef="0" IVar="0" Cut="1.6000000000000000e+01" cType="1" res="-5.8749027550220490e-02" rms="4.9318626523017883e-01" purity="4.1942113637924194e-01" nType="0">
            <Node pos="l" depth="3" NCoef="0" IVar="-1" Cut="0.0000000000000000e+00" cType="1" res="-8.3293924108147621e-03" rms="4.9673214554786682e-01" purity="4.4292846322059631e-01" nType="-99"/>
            <Node pos="r" depth="3" NCoef="0" IVar="-1" Cut="0.0000000000000000e+00" cType="1" res="-1.5435479581356049e-02" rms="4.8874205350875854e-01" purity="3.9449542760848999e-01" nType="-99"/>
          </Node>
          <Node pos="r" depth="2" NCoef="0" IVar="11" Cut="4.7084265388548374e-03" cType="1" res="-1.1585071682929993e-01" rms="4.4896796345710754e-01" purity="3.2042506337165833e-01" nType="0">
            <Node pos="l" depth="3" NCoef="0" IVar="-1" Cut="0.0000000000000000e+00" cType="1" res="-3.0182188376784325e-02" rms="4.5890405774116516e-01" purity="3.0166184902191162e-01" nType="-99"/>
            <Node pos="r" depth="3" NCoef="0" IVar="-1" Cut="0.0000000000000000e+00" cType="1" res="-2.2733306512236595e-02" rms="4.7302377223968506e-01" purity="3.3908045291900635e-01" nType="-99"/>
          </Node>
        </Node>
        <Node pos="r" depth="1" NCoef="0" IVar="2" Cut="9.5507812500000000e-01" cType="1" res="3.7090394645929337e-02" rms="4.3338084220886230e-01" purity="5.3518760204315186e-01" nType="0">
          <Node pos="l" depth="2" NCoef="0" IVar="6" Cut="7.4096679687500000e-02" cType="1" res="1.0076477378606796e-01" rms="4.4721665978431702e-01" purity="6.4891582727432251e-01" nType="0">
            <Node pos="l" depth="3" NCoef="0" IVar="-1" Cut="0.0000000000000000e+00" cType="1" res="4.8318006098270416e-02" rms="3.9034697413444519e-01" purity="8.0988222360610962e-01" nType="-99"/>
            <Node pos="r" depth="3" NCoef="0" IVar="-1" Cut="0.0000000000000000e+00" cType="1" res="1.3578646816313267e-02" rms="4.8966512084007263e-01" purity="5.9706997871398926e-01" nType="-99"/>
          </Node>
          <Node pos="r" depth="2" NCoef="0" IVar="0" Cut="1.6000000000000000e+01" cType="1" res="-1.0013609193265438e-02" rms="4.9837771058082581e-01" purity="4.8626589775085449e-01" nType="0">
            <Node pos="l" depth="3" NCoef="0" IVar="-1" Cut="0.0000000000000000e+00" cType="1" res="9.3498993664979935e-03" rms="4.9653765559196472e-01" purity="5.5873978137969971e-01" nType="-99"/>
            <Node pos="r" depth="3" NCoef="0" IVar="-1" Cut="0.0000000000000000e+00" cType="1" res="-8.4305191412568092e-03" rms="4.9655219912528992e-01" purity="4.4525587558746338e-01" nType="-99"/>
          </Node>
        </Node>
      </Node>
    </BinaryTree>
    <BinaryTree type="DecisionTree" boostWeight="1.0000000000000000e+00" itree="4">
      <Node pos="s" depth="0" NCoef="0" IVar="2" Cut="4.7619048506021500e-02" cType="1" res="1.2556121684610844e-02" rms="4.3741616606712341e-01" purity="5.0000000000000000e-01" nType="0">
        <Node pos="l" depth="1" NCoef="0" IVar="6" Cut="1.7001488804817200e-01" cType="1" res="-6.6777788102626801e-02" rms="4.4614639878273010e-01" purity="3.7117022275924683e-01" nType="0">
          <Node pos="l" depth="2" NCoef="0" IVar="0" Cut="1.6000000000000000e+01" cType="1" res="-5.2878301590681076e-02" rms="4.9312633275985718e-01" purity="4.1942113637924194e-01" nType="0">
            <Node pos="l" depth="3" NCoef="0" IVar="-1" Cut="0.0000000000000000e+00" cType="1" res="-7.5010685250163078e-03" rms="4.9673217535018921e-01" purity="4.4292846322059631e-01" nType="-99"/>
            <Node pos="r" depth="3" NCoef="0" IVar="-1" Cut="0.0000000000000000e+00" cType="1" res="-1.3921253383159637e-02" rms="4.8874205350875854e-01" purity="3.9449542760848999e-01" nType="-99"/>
          </Node>
          <Node pos="r" depth="2" NCoef="0" IVar="0" Cut="1.6000000000000000e+01" cType="1" res="-1.1791344732046127e-01" rms="4.6633428335189819e-01" purity="3.2042506337165833e-01" nType="0">
            <Node pos="l" depth="3" NCoef="0" IVar="-1" Cut="0.0000000000000000e+00" cType="1" res="-2.0255556330084801e-02" rms="4.7365090250968933e-01" purity="3.4059041738510132e-01" nType="-99"/>
            <Node pos="r" depth="3" NCoef="0" IVar="-1" Cut="0.0000000000000000e+00" cType="1" res="-2.7478465810418129e-02" rms="4.5858538150787354e-01" purity="3.0119633674621582e-01" nType="-99"/>
          </Node>
        </Node>
        <Node pos="r" depth="1" NCoef="0" IVar="2" Cut="9.5507812500000000e-01" cType="1" res="3.4224808216094971e-02" rms="4.3247824907302856e-01" purity="5.3518760204315186e-01" nType="0">
          <Node pos="l" depth="2" NCoef="0" IVar="2" Cut="6.9698661565780640e-01" cType="1" res="9.1120265424251556e-02" rms="4.4601768255233765e-01" purity="6.4891582727432251e-01" nType="0">
            <Node pos="l" depth="3" NCoef="0" IVar="-1" Cut="0.0000000000000000e+00" cType="1" res="1.2543653137981892e-02" rms="4.8924216628074646e-01" purity="5.9903085231781006e-01" nType="-99"/>
            <Node pos="r" depth="3" NCoef="0" IVar="-1" Cut="0.0000000000000000e+00" cType="1" res="4.5632205903530121e-02" rms="3.8354423642158508e-01" purity="8.1898069381713867e-01" nType="-99"/>
          </Node>
          <Node pos="r" depth="2" NCoef="0" IVar="0" Cut="2.3000000000000000e+01" cType="1" res="-9.0124467387795448e-03" rms="4.9803060293197632e-01" purity="4.8626589775085449e-01" nType="0">
            <Node pos="l" depth="3" NCoef="0" IVar="-1" Cut="0.0000000000000000e+00" cType="1" res="2.4418246466666460e-03" rms="4.9873733520507812e-01" purity="5.1285427808761597e-01" nType="-99"/>
            <Node pos="r" depth="3" NCoef="0" IVar="-1" Cut="0.0000000000000000e+00" cType="1" res="-1.7028132453560829e-02" rms="4.8799201846122742e-01" purity="3.9107900857925415e-01" nType="-99"/>
          </Node>
        </Node>
      </Node>
    </BinaryTree>
    <BinaryTree type="DecisionTree" boostWeight="1.0000000000000000e+00" itree="5">
      <Node pos="s" depth="0" NCoef="0" IVar="9" Cut="3.0000000000000000e+00" cType="1" res="8.4366081282496452e-03" rms="1.4643058180809021e-01" purity="5.0000000000000000e-01" nType="0">
        <Node pos="l" depth="1" NCoef="0" IVar="2" Cut="5.2380955219268799e-01" cType="1" res="-1.5115657588467002e-03" rms="4.3478095531463623e-01" purity="4.7949227690696716e-01" nType="0">
          <Node pos="l" depth="2" NCoef="0" IVar="0" Cut="1.3000000000000000e+01" cType="1" res="-9.2945151031017303e-02" rms="4.7627654671669006e-01" purity="3.5383394360542297e-01" nType="0">
            <Node pos="l" depth="3" NCoef="0" IVar="-1" Cut="0.0000000000000000e+00" cType="1" res="-9.9961655214428902e-03" rms="4.8881423473358154e-01" purity="4.0495586395263672e-01" nType="-99"/>
            <Node pos="r" depth="3" NCoef="0" IVar="-1" Cut="0.0000000000000000e+00" cType="1" res="-2.2508606314659119e-02" rms="4.6982917189598083e-01" purity="3.3272600173950195e-01" nType="-99"/>
          </Node>
          <Node pos="r" depth="2" NCoef="0" IVar="0" Cut="1.3000000000000000e+01" cType="1" res="5.4762009531259537e-03" rms="4.9391847848892212e-01" purity="5.1444417238235474e-01" nType="0">
            <Node pos="l" depth="3" NCoef="0" IVar="-1" Cut="0.0000000000000000e+00" cType="1" res="1.5993202105164528e-02" rms="4.8431321978569031e-01" purity="6.1172997951507568e-01" nType="-99"/>
            <Node pos="r" depth="3" NCoef="0" IVar="-1" Cut="0.0000000000000000e+00" cType="1" res="-2.7424863073974848e-03" rms="4.9458155035972595e-01" purity="4.8926785588264465e-01" nType="-99"/>
          </Node>
        </Node>
        <Node pos="r" depth="1" NCoef="0" IVar="6" Cut="1.2882487475872040e-01" cType="1" res="1.0326024144887924e-01" rms="4.4503319263458252e-01" purity="6.4028352499008179e-01" nType="0">
          <Node pos="l" depth="2" NCoef="0" IVar="-1" Cut="0.0000000000000000e+00" cType="1" res="3.6745589226484299e-02" rms="4.3957296013832092e-01" purity="7.3086732625961304e-01" nType="-99"/>
          <Node pos="r" depth="2" NCoef="0" IVar="-1" Cut="0.0000000000000000e+00" cType="1" res="2.1369543392211199e-03" rms="4.9782577157020569e-01" purity="5.1577842235565186e-01" nType="-99"/>
        </Node>
      </Node>
    </BinaryTree>
    <BinaryTree type="DecisionTree" boostWeight="1.0000000000000000e+00" itree="6">
      <Node pos="s" depth="0" NCoef="0" IVar="9" Cut="3.0000000000000000e+00" cType="1" res="7.9526640474796295e-03" rms="1.4587853848934174e-01" purity="5.0000000000000000e-01" nType="0">
        <Node pos="l" depth="1" NCoef="0" IVar="8" Cut="6.1904764175415039e-01" cType="1" res="-5.3685932653024793e-04" rms="4.3422311544418335e-01" purity="4.7949227690696716e-01" nType="0">
          <Node pos="l" depth="2" NCoef="0" IVar="6" Cut="1.4397321641445160e-01" cType="1" res="-5.0084821879863739e-02" rms="4.5154833793640137e-01" purity="4.1094583272933960e-01" nType="0">
            <Node pos="l" depth="3" NCoef="0" IVar="-1" Cut="0.0000000000000000e+00" cType="1" res="-8.5105728358030319e-03" rms="4.9578779935836792e-01" purity="4.5520919561386108e-01" nType="-99"/>
            <Node pos="r" depth="3" NCoef="0" IVar="-1" Cut="0.0000000000000000e+00" cType="1" res="-2.1954400464892387e-02" rms="4.6373251080513000e-01" purity="3.1502223014831543e-01" nType="-99"/>
          </Node>
          <Node pos="r" depth="2" NCoef="0" IVar="0" Cut="1.8000000000000000e+01" cType="1" res="1.5901571139693260e-02" rms="4.9158236384391785e-01" purity="5.2232629060745239e-01" nType="0">
            <Node pos="l" depth="3" NCoef="0" IVar="-1" Cut="0.0000000000000000e+00" cType="1" res="1.2258771806955338e-02" rms="4.8654171824455261e-01" purity="5.8637040853500366e-01" nType="-99"/>
            <Node pos="r" depth="3" NCoef="0" IVar="-1" Cut="0.0000000000000000e+00" cType="1" res="-5.6674689985811710e-03" rms="4.9252778291702271e-01" purity="4.5938238501548767e-01" nType="-99"/>
          </Node>
        </Node>
        <Node pos="r" depth="1" NCoef="0" IVar="6" Cut="1.2882487475872040e-01" cType="1" res="9.3535631895065308e-02" rms="4.4342148303985596e-01" purity="6.4028352499008179e-01" nType="0">
          <Node pos="l" depth="2" NCoef="0" IVar="-1" Cut="0.0000000000000000e+00" cType="1" res="3.3370517194271088e-02" rms="4.3960839509963989e-01" purity="7.3086732625961304e-01" nType="-99"/>
          <Node pos="r" depth="2" NCoef="0" IVar="-1" Cut="0.0000000000000000e+00" cType="1" res="1.9233615603297949e-03" rms="4.9782580137252808e-01" purity="5.1577842235565186e-01" nType="-99"/>
        </Node>
      </Node>
    </BinaryTree>
    <BinaryTree type="DecisionTree" boostWeight="1.0000000000000000e+00" itree="7">
      <Node pos="s" depth="0" NCoef="0" IVar="9" Cut="3.0000000000000000e+00" cType="1" res="7.8011741861701012e-03" rms="1.4545652270317078e-01" purity="5.0000000000000000e-01" nType="0">
        <Node pos="l" depth="1" NCoef="0" IVar="8" Cut="6.1904764175415039e-01" cType="1" res="7.9949553764890879e-05" rms="4.3365865945816040e-01" purity="4.7949227690696716e-01" nType="0">
          <Node pos="l" depth="2" NCoef="0" IVar="6" Cut="1.4397321641445160e-01" cType="1" res="-4.4738072901964188e-02" rms="4.5129901170730591e-01" purity="4.1094583272933960e-01" nType="0">
            <Node pos="l" depth="3" NCoef="0" IVar="-1" Cut="0.0000000000000000e+00" cType="1" res="-7.6607433147728443e-03" rms="4.9578809738159180e-01" purity="4.5520919561386108e-01" nType="-99"/>
            <Node pos="r" depth="3" NCoef="0" IVar="-1" Cut="0.0000000000000000e+00" cType="1" res="-1.9911708310246468e-02" rms="4.6373605728149414e-01" purity="3.1502223014831543e-01" nType="-99"/>
          </Node>
          <Node pos="r" depth="2" NCoef="0" IVar="0" Cut="1.6000000000000000e+01" cType="1" res="1.4313177205622196e-02" rms="4.9120432138442993e-01" purity="5.2232629060745239e-01" nType="0">
            <Node pos="l" depth="3" NCoef="0" IVar="-1" Cut="0.0000000000000000e+00" cType="1" res="1.3807093724608421e-02" rms="4.8329997062683105e-01" purity="6.0777485370635986e-01" nType="-99"/>
            <Node pos="r" depth="3" NCoef="0" IVar="-1" Cut="0.0000000000000000e+00" cType="1" res="-3.2946546562016010e-03" rms="4.9302354454994202e-01" purity="4.7369000315666199e-01" nType="-99"/>
          </Node>
        </Node>
        <Node pos="r" depth="1" NCoef="0" IVar="6" Cut="1.2882487475872040e-01" cType="1" res="8.4786616265773773e-02" rms="4.4211226701736450e-01" purity="6.4028352499008179e-01" nType="0">
          <Node pos="l" depth="2" NCoef="0" IVar="-1" Cut="0.0000000000000000e+00" cType="1" res="3.0352868139743805e-02" rms="4.3964606523513794e-01" purity="7.3086732625961304e-01" nType="-99"/>
          <Node pos="r" depth="2" NCoef="0" IVar="-1" Cut="0.0000000000000000e+00" cType="1" res="1.7311206320300698e-03" rms="4.9782586097717285e-01" purity="5.1577842235565186e-01" nType="-99"/>
        </Node>
      </Node>
    </BinaryTree>
    <BinaryTree type="DecisionTree" boostWeight="1.0000000000000000e+00" itree="8">
      <Node pos="s" depth="0" NCoef="0" IVar="9" Cut="3.0000000000000000e+00" cType="1" res="7.6142605394124985e-03" rms="1.4506937563419342e-01" purity="5.0000000000000000e-01" nType="0">
        <Node pos="l" depth="1" NCoef="0" IVar="8" Cut="6.1904764175415039e-01" cType="1" res="7.8345747897401452e-04" rms="4.3318051099777222e-01" purity="4.7949227690696716e-01" nType="0">
          <Node pos="l" depth="2" NCoef="0" IVar="6" Cut="1.4397321641445160e-01" cType="1" res="-3.9924740791320801e-02" rms="4.5109829306602478e-01" purity="4.1094583272933960e-01" nType="0">
            <Node pos="l" depth="3" NCoef="0" IVar="-1" Cut="0.0000000000000000e+00" cType="1" res="-6.8965526297688484e-03" rms="4.9578845500946045e-01" purity="4.5520919561386108e-01" nType="-99"/>
            <Node pos="r" depth="3" NCoef="0" IVar="-1" Cut="0.0000000000000000e+00" cType="1" res="-1.8061494454741478e-02" rms="4.6373969316482544e-01" purity="3.1502223014831543e-01" nType="-99"/>
          </Node>
          <Node pos="r" depth="2" NCoef="0" IVar="0" Cut="2.1000000000000000e+01" cType="1" res="1.2884583324193954e-02" rms="4.9088802933692932e-01" purity="5.2232629060745239e-01" nType="0">
            <Node pos="l" depth="3" NCoef="0" IVar="-1" Cut="0.0000000000000000e+00" cType="1" res="7.9504828900098801e-03" rms="4.8904266953468323e-01" purity="5.6424146890640259e-01" nType="-99"/>
            <Node pos="r" depth="3" NCoef="0" IVar="-1" Cut="0.0000000000000000e+00" cType="1" res="-8.7189842015504837e-03" rms="4.9007451534271240e-01" purity="4.3334427475929260e-01" nType="-99"/>
          </Node>
        </Node>
        <Node pos="r" depth="1" NCoef="0" IVar="2" Cut="3.8095238804817200e-01" cType="1" res="7.6912596821784973e-02" rms="4.4104900956153870e-01" purity="6.4028352499008179e-01" nType="0">
          <Node pos="l" depth="2" NCoef="0" IVar="-1" Cut="0.0000000000000000e+00" cType="1" res="5.0369948148727417e-03" rms="4.9343270063400269e-01" purity="5.5323588848114014e-01" nType="-99"/>
          <Node pos="r" depth="2" NCoef="0" IVar="-1" Cut="0.0000000000000000e+00" cType="1" res="3.1769074499607086e-02" rms="4.2481073737144470e-01" purity="7.5374150276184082e-01" nType="-99"/>
        </Node>
      </Node>
    </BinaryTree>
    <BinaryTree type="DecisionTree" boostWeight="1.0000000000000000e+00" itree="9">
      <Node pos="s" depth="0" NCoef="0" IVar="0" Cut="1.2000000000000000e+01" cType="1" res="2.4186090740840882e-05" rms="4.8787522315979004e-01" purity="5.0000000000000000e-01" nType="0">
        <Node pos="l" depth="1" NCoef="0" IVar="6" Cut="1.0974702239036560e-01" cType="1" res="1.1598795652389526e-01" rms="-nan" purity="5.8624273538589478e-01" nType="0">
          <Node pos="l" depth="2" NCoef="0" IVar="8" Cut="7.1428573131561279e-01" cType="1" res="1.1307720839977264e-01" rms="-nan" purity="6.4716035127639771e-01" nType="0">
            <Node pos="l" depth="3" NCoef="0" IVar="-1" Cut="0.0000000000000000e+00" cType="1" res="1.3405783101916313e-02" rms="4.7831419110298157e-01" purity="6.1718255281448364e-01" nType="-99"/>
            <Node pos="r" depth="3" NCoef="0" IVar="-1" Cut="0.0000000000000000e+00" cType="1" res="2.3865500465035439e-02" rms="4.6245604753494263e-01" purity="6.7674565315246582e-01" nType="-99"/>
          </Node>
          <Node pos="r" depth="2" NCoef="0" IVar="-1" Cut="0.0000000000000000e+00" cType="1" res="7.9814950004220009e-04" rms="4.9054288864135742e-01" purity="4.6676921844482422e-01" nType="-99"/>
        </Node>
        <Node pos="r" depth="1" NCoef="0" IVar="2" Cut="4.7619048506021500e-02" cType="1" res="-1.2577463872730732e-02" rms="4.8586413264274597e-01" purity="4.8090726137161255e-01" nType="0">
          <Node pos="l" depth="2" NCoef="0" IVar="6" Cut="1.7001488804817200e-01" cType="1" res="-6.4746320247650146e-02" rms="4.7363802790641785e-01" purity="3.5393512248992920e-01" nType="0">
            <Node pos="l" depth="3" NCoef="0" IVar="-1" Cut="0.0000000000000000e+00" cType="1" res="-9.6795186400413513e-03" rms="4.8786771297454834e-01" purity="4.0017905831336975e-01" nType="-99"/>
            <Node pos="r" depth="3" NCoef="0" IVar="-1" Cut="0.0000000000000000e+00" cType="1" res="-1.7738521099090576e-02" rms="4.5999038219451904e-01" purity="3.0643677711486816e-01" nType="-99"/>
          </Node>
          <Node pos="r" depth="2" NCoef="0" IVar="2" Cut="9.5507812500000000e-01" cType="1" res="6.9733854616060853e-04" rms="4.8803713917732239e-01" purity="5.1321637630462646e-01" nType="0">
            <Node pos="l" depth="3" NCoef="0" IVar="-1" Cut="0.0000000000000000e+00" cType="1" res="1.1282569728791714e-02" rms="4.7221654653549194e-01" purity="6.3316214084625244e-01" nType="-99"/>
            <Node pos="r" depth="3" NCoef="0" IVar="-1" Cut="0.0000000000000000e+00" cType="1" res="-4.2724534869194031e-03" rms="4.9670052528381348e-01" purity="4.6764624118804932e-01" nType="-99"/>
          </Node>
        </Node>
      </Node>
    </BinaryTree>
    <BinaryTree type="DecisionTree" boostWeight="1.0000000000000000e+00" itree="10">
      <Node pos="s" depth="0" NCoef="0" IVar="0" Cut="1.1000000000000000e+01" cType="1" res="2.2906860976945609e-05" rms="4.8737782239913940e-01" purity="5.0000000000000000e-01" nType="0">
        <Node pos="l" depth="1" NCoef="0" IVar="8" Cut="6.1904764175415039e-01" cType="1" res="1.5942172706127167e-01" rms="-nan" purity="5.9910947084426880e-01" nType="0">
          <Node pos="l" depth="2" NCoef="0" IVar="-1" Cut="0.0000000000000000e+00" cType="1" res="7.9973181709647179e-03" rms="4.8613992333412170e-01" purity="5.3966647386550903e-01" nType="-99"/>
          <Node pos="r" depth="2" NCoef="0" IVar="-1" Cut="0.0000000000000000e+00" cType="1" res="2.1898873150348663e-02" rms="4.6104738116264343e-01" purity="6.7743009328842163e-01" nType="-99"/>
        </Node>
        <Node pos="r" depth="1" NCoef="0" IVar="2" Cut="4.7619048506021500e-02" cType="1" res="-8.8365925475955009e-03" rms="4.8440214991569519e-01" purity="4.8504355549812317e-01" nType="0">
          <Node pos="l" depth="2" NCoef="0" IVar="6" Cut="1.7001488804817200e-01" cType="1" res="-5.6046441197395325e-02" rms="4.7411486506462097e-01" purity="3.5748031735420227e-01" nType="0">
            <Node pos="l" depth="3" NCoef="0" IVar="-1" Cut="0.0000000000000000e+00" cType="1" res="-8.3680730313062668e-03" rms="4.8843485116958618e-01" purity="4.0396121144294739e-01" nType="-99"/>
            <Node pos="r" depth="3" NCoef="0" IVar="-1" Cut="0.0000000000000000e+00" cType="1" res="-1.5763070434331894e-02" rms="4.6113097667694092e-01" purity="3.0932021141052246e-01" nType="-99"/>
          </Node>
          <Node pos="r" depth="2" NCoef="0" IVar="2" Cut="9.5507812500000000e-01" cType="1" res="3.4465561620891094e-03" rms="4.8629230260848999e-01" purity="5.1823323965072632e-01" nType="0">
            <Node pos="l" depth="3" NCoef="0" IVar="-1" Cut="0.0000000000000000e+00" cType="1" res="1.0716025717556477e-02" rms="4.7137999534606934e-01" purity="6.3609951734542847e-01" nType="-99"/>
            <Node pos="r" depth="3" NCoef="0" IVar="-1" Cut="0.0000000000000000e+00" cType="1" res="-3.5006259568035603e-03" rms="4.9665334820747375e-01" purity="4.7191995382308960e-01" nType="-99"/>
          </Node>
        </Node>
      </Node>
    </BinaryTree>
    <BinaryTree type="DecisionTree" boostWeight="1.0000000000000000e+00" itree="11">
      <Node pos="s" depth="0" NCoef="0" IVar="9" Cut="3.0000000000000000e+00" cType="1" res="6.3578118570148945e-03" rms="1.4407043159008026e-01" purity="5.0000000000000000e-01" nType="0">
        <Node pos="l" depth="1" NCoef="0" IVar="8" Cut="6.1904764175415039e-01" cType="1" res="1.0696206009015441e-03" rms="4.3207934498786926e-01" purity="4.7949227690696716e-01" nType="0">
          <Node pos="l" depth="2" NCoef="0" IVar="0" Cut="1.1000000000000000e+01" cType="1" res="-4.2201645672321320e-02" rms="4.8590490221977234e-01" purity="4.1094583272933960e-01" nType="0">
            <Node pos="l" depth="3" NCoef="0" IVar="-1" Cut="0.0000000000000000e+00" cType="1" res="2.4724710965529084e-04" rms="4.9407649040222168e-01" purity="4.8104348778724670e-01" nType="-99"/>
            <Node pos="r" depth="3" NCoef="0" IVar="-1" Cut="0.0000000000000000e+00" cType="1" res="-1.0370208881795406e-02" rms="4.8386976122856140e-01" purity="3.9745649695396423e-01" nType="-99"/>
          </Node>
          <Node pos="r" depth="2" NCoef="0" IVar="0" Cut="2.3000000000000000e+01" cType="1" res="1.0871336795389652e-02" rms="4.8977196216583252e-01" purity="5.2232629060745239e-01" nType="0">
            <Node pos="l" depth="3" NCoef="0" IVar="-1" Cut="0.0000000000000000e+00" cType="1" res="5.7242787443101406e-03" rms="4.8921373486518860e-01" purity="5.5305755138397217e-01" nType="-99"/>
            <Node pos="r" depth="3" NCoef="0" IVar="-1" Cut="0.0000000000000000e+00" cType="1" res="-1.0255957953631878e-02" rms="4.8678067326545715e-01" purity="4.1330355405807495e-01" nType="-99"/>
          </Node>
        </Node>
        <Node pos="r" depth="1" NCoef="0" IVar="8" Cut="4.1927084326744080e-01" cType="1" res="6.4078152179718018e-02" rms="4.3971592187881470e-01" purity="6.4028352499008179e-01" nType="0">
          <Node pos="l" depth="2" NCoef="0" IVar="-1" Cut="0.0000000000000000e+00" cType="1" res="2.2442752961069345e-03" rms="4.9051836133003235e-01" purity="5.5708152055740356e-01" nType="-99"/>
          <Node pos="r" depth="2" NCoef="0" IVar="-1" Cut="0.0000000000000000e+00" cType="1" res="2.6310114189982414e-02" rms="4.3520075082778931e-01" purity="7.2902041673660278e-01" nType="-99"/>
        </Node>
      </Node>
    </BinaryTree>
    <BinaryTree type="DecisionTree" boostWeight="1.0000000000000000e+00" itree="12">
      <Node pos="s" depth="0" NCoef="0" IVar="0" Cut="1.3000000000000000e+01" cType="1" res="2.1961772290524095e-05" rms="4.8654276132583618e-01" purity="5.0000000000000000e-01" nType="0">
        <Node pos="l" depth="1" NCoef="0" IVar="2" Cut="4.7619048506021500e-02" cType="1" res="3.4865446388721466e-02" rms="-nan" purity="5.7618707418441772e-01" nType="0">
          <Node pos="l" depth="2" NCoef="0" IVar="-1" Cut="0.0000000000000000e+00" cType="1" res="-3.0067055486142635e-03" rms="4.8921620845794678e-01" purity="4.1959723830223083e-01" nType="-99"/>
          <Node pos="r" depth="2" NCoef="0" IVar="6" Cut="7.9427085816860199e-02" cType="1" res="3.3483400940895081e-02" rms="7.7378803491592407e-01" purity="6.3304954767227173e-01" nType="0">
            <Node pos="l" depth="3" NCoef="0" IVar="-1" Cut="0.0000000000000000e+00" cType="1" res="1.9067918881773949e-02" rms="4.6280559897422791e-01" purity="6.7364263534545898e-01" nType="-99"/>
            <Node pos="r" depth="3" NCoef="0" IVar="-1" Cut="0.0000000000000000e+00" cType="1" res="5.7074185460805893e-03" rms="4.8683959245681763e-01" purity="5.8286553621292114e-01" nType="-99"/>
          </Node>
        </Node>
        <Node pos="r" depth="1" NCoef="0" IVar="6" Cut="1.1681547760963440e-01" cType="1" res="-1.2258272618055344e-02" rms="4.8573985695838928e-01" purity="4.7656807303428650e-01" nType="0">
          <Node pos="l" depth="2" NCoef="0" IVar="2" Cut="9.0476191043853760e-01" cType="1" res="-6.8957009352743626e-04" rms="4.8811116814613342e-01" purity="5.0619542598724365e-01" nType="0">
            <Node pos="l" depth="3" NCoef="0" IVar="-1" Cut="0.0000000000000000e+00" cType="1" res="1.1279760859906673e-02" rms="4.6702170372009277e-01" purity="6.4395302534103394e-01" nType="-99"/>
            <Node pos="r" depth="3" NCoef="0" IVar="-1" Cut="0.0000000000000000e+00" cType="1" res="-3.6616655997931957e-03" rms="4.9612817168235779e-01" purity="4.6452313661575317e-01" nType="-99"/>
          </Node>
          <Node pos="r" depth="2" NCoef="0" IVar="6" Cut="1.6183035075664520e-01" cType="1" res="-5.0374425947666168e-02" rms="4.7585794329643250e-01" purity="3.7895292043685913e-01" nType="0">
            <Node pos="l" depth="3" NCoef="0" IVar="-1" Cut="0.0000000000000000e+00" cType="1" res="-6.3327564857900143e-03" rms="4.8989096283912659e-01" purity="4.4200271368026733e-01" nType="-99"/>
            <Node pos="r" depth="3" NCoef="0" IVar="-1" Cut="0.0000000000000000e+00" cType="1" res="-1.4659172855317593e-02" rms="4.6470016241073608e-01" purity="3.2374528050422668e-01" nType="-99"/>
          </Node>
        </Node>
      </Node>
    </BinaryTree>
    <BinaryTree type="DecisionTree" boostWeight="1.0000000000000000e+00" itree="13">
      <Node pos="s" depth="0" NCoef="0" IVar="9" Cut="3.0000000000000000e+00" cType="1" res="5.7623875327408314e-03" rms="1.4362621307373047e-01" purity="5.0000000000000000e-01" nType="0">
        <Node pos="l" depth="1" NCoef="0" IVar="8" Cut="6.1904764175415039e-01" cType="1" res="9.5156597672030330e-04" rms="4.3156090378761292e-01" purity="4.7949227690696716e-01" nType="0">
          <Node pos="l" depth="2" NCoef="0" IVar="0" Cut="1.1000000000000000e+01" cType="1" res="-3.6388739943504333e-02" rms="4.8571851849555969e-01" purity="4.1094583272933960e-01" nType="0">
            <Node pos="l" depth="3" NCoef="0" IVar="-1" Cut="0.0000000000000000e+00" cType="1" res="7.1398739237338305e-05" rms="4.9399545788764954e-01" purity="4.8104348778724670e-01" nType="-99"/>
            <Node pos="r" depth="3" NCoef="0" IVar="-1" Cut="0.0000000000000000e+00" cType="1" res="-8.9580267667770386e-03" rms="4.8378947377204895e-01" purity="3.9745649695396423e-01" nType="-99"/>
          </Node>
          <Node pos="r" depth="2" NCoef="0" IVar="0" Cut="2.1000000000000000e+01" cType="1" res="9.0654799714684486e-03" rms="4.8919865489006042e-01" purity="5.2232629060745239e-01" nType="0">
            <Node pos="l" depth="3" NCoef="0" IVar="-1" Cut="0.0000000000000000e+00" cType="1" res="5.8258855715394020e-03" rms="4.8788326978683472e-01" purity="5.6424146890640259e-01" nType="-99"/>
            <Node pos="r" depth="3" NCoef="0" IVar="-1" Cut="0.0000000000000000e+00" cType="1" res="-6.5749278292059898e-03" rms="4.8939374089241028e-01" purity="4.3334427475929260e-01" nType="-99"/>
          </Node>
        </Node>
        <Node pos="r" depth="1" NCoef="0" IVar="6" Cut="1.2882487475872040e-01" cType="1" res="5.7080600410699844e-02" rms="4.3850803375244141e-01" purity="6.4028352499008179e-01" nType="0">
          <Node pos="l" depth="2" NCoef="0" IVar="-1" Cut="0.0000000000000000e+00" cType="1" res="2.1573100239038467e-02" rms="4.3869432806968689e-01" purity="7.3086732625961304e-01" nType="-99"/>
          <Node pos="r" depth="2" NCoef="0" IVar="-1" Cut="0.0000000000000000e+00" cType="1" res="2.8394379114615731e-05" rms="4.9717956781387329e-01" purity="5.1577842235565186e-01" nType="-99"/>
        </Node>
      </Node>
    </BinaryTree>
    <BinaryTree type="DecisionTree" boostWeight="1.0000000000000000e+00" itree="14">
      <Node pos="s" depth="0" NCoef="0" IVar="0" Cut="1.3000000000000000e+01" cType="1" res="2.2724987502442673e-05" rms="4.8583635687828064e-01" purity="5.0000000000000000e-01" nType="0">
        <Node pos="l" depth="1" NCoef="0" IVar="2" Cut="4.7619048506021500e-02" cType="1" res="3.4593701362609863e-02" rms="-nan" purity="5.7618707418441772e-01" nType="0">
          <Node pos="l" depth="2" NCoef="0" IVar="-1" Cut="0.0000000000000000e+00" cType="1" res="-2.5097972247749567e-03" rms="4.8906955122947693e-01" purity="4.1959723830223083e-01" nType="-99"/>
          <Node pos="r" depth="2" NCoef="0" IVar="6" Cut="7.9427085816860199e-02" cType="1" res="0.0000000000000000e+00" rms="7.7451211214065552e-01" purity="6.3304954767227173e-01" nType="0">
            <Node pos="l" depth="3" NCoef="0" IVar="-1" Cut="0.0000000000000000e+00" cType="1" res="1.6658710315823555e-02" rms="4.6274259686470032e-01" purity="6.7364263534545898e-01" nType="-99"/>
            <Node pos="r" depth="3" NCoef="0" IVar="-1" Cut="0.0000000000000000e+00" cType="1" res="4.9400930292904377e-03" rms="4.8636767268180847e-01" purity="5.8286553621292114e-01" nType="-99"/>
          </Node>
        </Node>
        <Node pos="r" depth="1" NCoef="0" IVar="6" Cut="1.1681547760963440e-01" cType="1" res="-1.0569306090474129e-02" rms="4.8522993922233582e-01" purity="4.7656807303428650e-01" nType="0">
          <Node pos="l" depth="2" NCoef="0" IVar="2" Cut="9.0476191043853760e-01" cType="1" res="-7.9581805039197206e-04" rms="4.8768252134323120e-01" purity="5.0619542598724365e-01" nType="0">
            <Node pos="l" depth="3" NCoef="0" IVar="-1" Cut="0.0000000000000000e+00" cType="1" res="9.6881212666630745e-03" rms="4.6663159132003784e-01" purity="6.4395302534103394e-01" nType="-99"/>
            <Node pos="r" depth="3" NCoef="0" IVar="-1" Cut="0.0000000000000000e+00" cType="1" res="-3.1968760304152966e-03" rms="4.9600088596343994e-01" purity="4.6452313661575317e-01" nType="-99"/>
          </Node>
          <Node pos="r" depth="2" NCoef="0" IVar="6" Cut="1.6183035075664520e-01" cType="1" res="-4.2770650237798691e-02" rms="4.7564125061035156e-01" purity="3.7895292043685913e-01" nType="0">
            <Node pos="l" depth="3" NCoef="0" IVar="-1" Cut="0.0000000000000000e+00" cType="1" res="-5.3479797206819057e-03" rms="4.8968935012817383e-01" purity="4.4200271368026733e-01" nType="-99"/>
            <Node pos="r" depth="3" NCoef="0" IVar="-1" Cut="0.0000000000000000e+00" cType="1" res="-1.2654103338718414e-02" rms="4.6467158198356628e-01" purity="3.2374528050422668e-01" nType="-99"/>
          </Node>
        </Node>
      </Node>
    </BinaryTree>
    <BinaryTree type="DecisionTree" boostWeight="1.0000000000000000e+00" itree="15">
      <Node pos="s" depth="0" NCoef="0" IVar="9" Cut="3.0000000000000000e+00" cType="1" res="5.2399709820747375e-03" rms="1.4327654242515564e-01" purity="5.0000000000000000e-01" nType="0">
        <Node pos="l" depth="1" NCoef="0" IVar="3" Cut="3.4375000000000000e-01" cType="1" res="8.5287826368585229e-04" rms="4.3117013573646545e-01" purity="4.7949227690696716e-01" nType="0">
          <Node pos="l" depth="2" NCoef="0" IVar="2" Cut="9.0476191043853760e-01" cType="1" res="1.3566883280873299e-02" rms="4.2328223586082458e-01" purity="5.1282525062561035e-01" nType="0">
            <Node pos="l" depth="3" NCoef="0" IVar="-1" Cut="0.0000000000000000e+00" cType="1" res="2.4394974112510681e-02" rms="4.2701929807662964e-01" purity="7.4934297800064087e-01" nType="-99"/>
            <Node pos="r" depth="3" NCoef="0" IVar="-1" Cut="0.0000000000000000e+00" cType="1" res="-1.1738893808797002e-03" rms="4.9475315213203430e-01" purity="4.8823228478431702e-01" nType="-99"/>
          </Node>
          <Node pos="r" depth="2" NCoef="0" IVar="7" Cut="2.6157952379435301e-03" cType="1" res="-2.8486924245953560e-02" rms="4.4746753573417664e-01" purity="4.0257051587104797e-01" nType="0">
            <Node pos="l" depth="3" NCoef="0" IVar="-1" Cut="0.0000000000000000e+00" cType="1" res="1.9460559124127030e-03" rms="4.9182140827178955e-01" purity="5.0052171945571899e-01" nType="-99"/>
            <Node pos="r" depth="3" NCoef="0" IVar="-1" Cut="0.0000000000000000e+00" cType="1" res="-1.0174887254834175e-02" rms="4.7850966453552246e-01" purity="3.7726864218711853e-01" nType="-99"/>
          </Node>
        </Node>
        <Node pos="r" depth="1" NCoef="0" IVar="8" Cut="4.1927084326744080e-01" cType="1" res="5.0979956984519958e-02" rms="4.3759140372276306e-01" purity="6.4028352499008179e-01" nType="0">
          <Node pos="l" depth="2" NCoef="0" IVar="-1" Cut="0.0000000000000000e+00" cType="1" res="1.3939492637291551e-03" rms="4.8958081007003784e-01" purity="5.5708152055740356e-01" nType="-99"/>
          <Node pos="r" depth="2" NCoef="0" IVar="-1" Cut="0.0000000000000000e+00" cType="1" res="2.1564267575740814e-02" rms="4.3442931771278381e-01" purity="7.2902041673660278e-01" nType="-99"/>
        </Node>
      </Node>
    </BinaryTree>
    <BinaryTree type="DecisionTree" boostWeight="1.0000000000000000e+00" itree="16">
      <Node pos="s" depth="0" NCoef="0" IVar="0" Cut="1.1000000000000000e+01" cType="1" res="2.6225026886095293e-05" rms="4.8521092534065247e-01" purity="5.0000000000000000e-01" nType="0">
        <Node pos="l" depth="1" NCoef="0" IVar="8" Cut="6.1904764175415039e-01" cType="1" res="1.5646712481975555e-01" rms="-nan" purity="5.9910947084426880e-01" nType="0">
          <Node pos="l" depth="2" NCoef="0" IVar="-1" Cut="0.0000000000000000e+00" cType="1" res="6.1941277235746384e-03" rms="4.8461031913757324e-01" purity="5.3966647386550903e-01" nType="-99"/>
          <Node pos="r" depth="2" NCoef="0" IVar="-1" Cut="0.0000000000000000e+00" cType="1" res="1.5477765351533890e-02" rms="4.6029418706893921e-01" purity="6.7743009328842163e-01" nType="-99"/>
        </Node>
        <Node pos="r" depth="1" NCoef="0" IVar="0" Cut="2.6000000000000000e+01" cType="1" res="-7.3219044134020805e-03" rms="4.8634690046310425e-01" purity="4.8504355549812317e-01" nType="0">
          <Node pos="l" depth="2" NCoef="0" IVar="1" Cut="1.0974702425301075e-02" cType="1" res="8.9102573692798615e-02" rms="-nan" purity="4.9438041448593140e-01" nType="0">
            <Node pos="l" depth="3" NCoef="0" IVar="-1" Cut="0.0000000000000000e+00" cType="1" res="2.0224240142852068e-03" rms="4.8923048377037048e-01" purity="5.2612751722335815e-01" nType="-99"/>
            <Node pos="r" depth="3" NCoef="0" IVar="-1" Cut="0.0000000000000000e+00" cType="1" res="-6.1412691138684750e-03" rms="4.7970810532569885e-01" purity="4.2199388146400452e-01" nType="-99"/>
          </Node>
          <Node pos="r" depth="2" NCoef="0" IVar="-1" Cut="0.0000000000000000e+00" cType="1" res="-1.2104806490242481e-02" rms="4.8005014657974243e-01" purity="3.9457830786705017e-01" nType="-99"/>
        </Node>
      </Node>
    </BinaryTree>
    <BinaryTree type="DecisionTree" boostWeight="1.0000000000000000e+00" itree="17">
      <Node pos="s" depth="0" NCoef="0" IVar="9" Cut="3.0000000000000000e+00" cType="1" res="4.7729713842272758e-03" rms="1.4296627044677734e-01" purity="5.0000000000000000e-01" nType="0">
        <Node pos="l" depth="1" NCoef="0" IVar="10" Cut="7.1428573131561279e-01" cType="1" res="8.0517696915194392e-04" rms="4.3080842494964600e-01" purity="4.7949227690696716e-01" nType="0">
          <Node pos="l" depth="2" NCoef="0" IVar="6" Cut="1.4397321641445160e-01" cType="1" res="-2.6427773758769035e-02" rms="4.4593051075935364e-01" purity="3.9590716361999512e-01" nType="0">
            <Node pos="l" depth="3" NCoef="0" IVar="-1" Cut="0.0000000000000000e+00" cType="1" res="-4.9438318237662315e-03" rms="4.9378153681755066e-01" purity="4.3961095809936523e-01" nType="-99"/>
            <Node pos="r" depth="3" NCoef="0" IVar="-1" Cut="0.0000000000000000e+00" cType="1" res="-1.1028782464563847e-02" rms="4.5889666676521301e-01" purity="3.0449363589286804e-01" nType="-99"/>
          </Node>
          <Node pos="r" depth="2" NCoef="0" IVar="0" Cut="2.1000000000000000e+01" cType="1" res="4.1648563928902149e-03" rms="4.8898798227310181e-01" purity="5.1506388187408447e-01" nType="0">
            <Node pos="l" depth="3" NCoef="0" IVar="-1" Cut="0.0000000000000000e+00" cType="1" res="3.7414731923490763e-03" rms="4.8840638995170593e-01" purity="5.5089294910430908e-01" nType="-99"/>
            <Node pos="r" depth="3" NCoef="0" IVar="-1" Cut="0.0000000000000000e+00" cType="1" res="-5.8412970975041389e-03" rms="4.8876187205314636e-01" purity="4.3161562085151672e-01" nType="-99"/>
          </Node>
        </Node>
        <Node pos="r" depth="1" NCoef="0" IVar="2" Cut="3.8095238804817200e-01" cType="1" res="4.7274231910705566e-02" rms="4.3687179684638977e-01" purity="6.4028352499008179e-01" nType="0">
          <Node pos="l" depth="2" NCoef="0" IVar="-1" Cut="0.0000000000000000e+00" cType="1" res="2.4440072011202574e-03" rms="4.9222087860107422e-01" purity="5.5323588848114014e-01" nType="-99"/>
          <Node pos="r" depth="2" NCoef="0" IVar="-1" Cut="0.0000000000000000e+00" cType="1" res="2.0977396517992020e-02" rms="4.2314407229423523e-01" purity="7.5374150276184082e-01" nType="-99"/>
        </Node>
      </Node>
    </BinaryTree>
    <BinaryTree type="DecisionTree" boostWeight="1.0000000000000000e+00" itree="18">
      <Node pos="s" depth="0" NCoef="0" IVar="0" Cut="1.1000000000000000e+01" cType="1" res="2.3499176677432843e-05" rms="4.8482599854469299e-01" purity="5.0000000000000000e-01" nType="0">
        <Node pos="l" depth="1" NCoef="0" IVar="0" Cut="9.0000000000000000e+00" cType="1" res="4.3159779161214828e-02" rms="4.7437047958374023e-01" purity="5.9910947084426880e-01" nType="0">
          <Node pos="l" depth="2" NCoef="0" IVar="-1" Cut="0.0000000000000000e+00" cType="1" res="1.3908091932535172e-02" rms="4.7011116147041321e-01" purity="6.2201720476150513e-01" nType="-99"/>
          <Node pos="r" depth="2" NCoef="0" IVar="-1" Cut="0.0000000000000000e+00" cType="1" res="5.0028152763843536e-03" rms="4.7698986530303955e-01" purity="5.8025664091110229e-01" nType="-99"/>
        </Node>
        <Node pos="r" depth="1" NCoef="0" IVar="0" Cut="2.6000000000000000e+01" cType="1" res="-6.4861201681196690e-03" rms="4.8605197668075562e-01" purity="4.8504355549812317e-01" nType="0">
          <Node pos="l" depth="2" NCoef="0" IVar="1" Cut="1.0974702425301075e-02" cType="1" res="8.8984645903110504e-02" rms="-nan" purity="4.9438041448593140e-01" nType="0">
            <Node pos="l" depth="3" NCoef="0" IVar="-1" Cut="0.0000000000000000e+00" cType="1" res="1.7308040987700224e-03" rms="4.8908022046089172e-01" purity="5.2612751722335815e-01" nType="-99"/>
            <Node pos="r" depth="3" NCoef="0" IVar="-1" Cut="0.0000000000000000e+00" cType="1" res="-5.4237819276750088e-03" rms="4.7954717278480530e-01" purity="4.2199388146400452e-01" nType="-99"/>
          </Node>
          <Node pos="r" depth="2" NCoef="0" IVar="-1" Cut="0.0000000000000000e+00" cType="1" res="-1.0454402305185795e-02" rms="4.7995826601982117e-01" purity="3.9457830786705017e-01" nType="-99"/>
        </Node>
      </Node>
    </BinaryTree>
    <BinaryTree type="DecisionTree" boostWeight="1.0000000000000000e+00" itree="19">
      <Node pos="s" depth="0" NCoef="0" IVar="9" Cut="3.0000000000000000e+00" cType="1" res="4.2434800416231155e-03" rms="1.4269378781318665e-01" purity="5.0000000000000000e-01" nType="0">
        <Node pos="l" depth="1" NCoef="0" IVar="8" Cut="6.1904764175415039e-01" cType="1" res="3.0260102357715368e-04" rms="4.3062326312065125e-01" purity="4.7949227690696716e-01" nType="0">
          <Node pos="l" depth="2" NCoef="0" IVar="0" Cut="1.1000000000000000e+01" cType="1" res="-2.5505399331450462e-02" rms="4.8526588082313538e-01" purity="4.1094583272933960e-01" nType="0">
            <Node pos="l" depth="3" NCoef="0" IVar="-1" Cut="0.0000000000000000e+00" cType="1" res="-6.2185968272387981e-04" rms="4.9360027909278870e-01" purity="4.8104348778724670e-01" nType="-99"/>
            <Node pos="r" depth="3" NCoef="0" IVar="-1" Cut="0.0000000000000000e+00" cType="1" res="-6.2209307216107845e-03" rms="4.8352602124214172e-01" purity="3.9745649695396423e-01" nType="-99"/>
          </Node>
          <Node pos="r" depth="2" NCoef="0" IVar="10" Cut="9.7395831346511841e-01" cType="1" res="1.2963024899363518e-02" rms="4.1772940754890442e-01" purity="5.2232629060745239e-01" nType="0">
            <Node pos="l" depth="3" NCoef="0" IVar="-1" Cut="0.0000000000000000e+00" cType="1" res="1.1934264563024044e-02" rms="4.5755571126937866e-01" purity="6.5626752376556396e-01" nType="-99"/>
            <Node pos="r" depth="3" NCoef="0" IVar="-1" Cut="0.0000000000000000e+00" cType="1" res="-1.1841988889500499e-03" rms="4.9413421750068665e-01" purity="4.9136292934417725e-01" nType="-99"/>
          </Node>
        </Node>
        <Node pos="r" depth="1" NCoef="0" IVar="8" Cut="4.1927084326744080e-01" cType="1" res="4.3623972684144974e-02" rms="4.3627423048019409e-01" purity="6.4028352499008179e-01" nType="0">
          <Node pos="l" depth="2" NCoef="0" IVar="-1" Cut="0.0000000000000000e+00" cType="1" res="1.4662159373983741e-03" rms="4.8906347155570984e-01" purity="5.5708152055740356e-01" nType="-99"/>
          <Node pos="r" depth="2" NCoef="0" IVar="-1" Cut="0.0000000000000000e+00" cType="1" res="1.8430069088935852e-02" rms="4.3380653858184814e-01" purity="7.2902041673660278e-01" nType="-99"/>
        </Node>
      </Node>
    </BinaryTree>
    <BinaryTree type="DecisionTree" boostWeight="1.0000000000000000e+00" itree="20">
      <Node pos="s" depth="0" NCoef="0" IVar="0" Cut="1.3000000000000000e+01" cType="1" res="2.2192674805410206e-05" rms="4.8450380563735962e-01" purity="5.0000000000000000e-01" nType="0">
        <Node pos="l" depth="1" NCoef="0" IVar="6" Cut="6.1383929103612900e-02" cType="1" res="3.3978059887886047e-02" rms="-nan" purity="5.7618707418441772e-01" nType="0">
          <Node pos="l" depth="2" NCoef="0" IVar="-1" Cut="0.0000000000000000e+00" cType="1" res="1.2408389709889889e-02" rms="4.6681496500968933e-01" purity="6.6268229484558105e-01" nType="-99"/>
          <Node pos="r" depth="2" NCoef="0" IVar="0" Cut="1.0000000000000000e+01" cType="1" res="1.1002306826412678e-02" rms="4.8229131102561951e-01" purity="5.3262704610824585e-01" nType="0">
            <Node pos="l" depth="3" NCoef="0" IVar="-1" Cut="0.0000000000000000e+00" cType="1" res="6.8322680890560150e-03" rms="4.7983324527740479e-01" purity="5.6852477788925171e-01" nType="-99"/>
            <Node pos="r" depth="3" NCoef="0" IVar="-1" Cut="0.0000000000000000e+00" cType="1" res="-6.2603491824120283e-04" rms="4.8334357142448425e-01" purity="5.0958687067031860e-01" nType="-99"/>
          </Node>
        </Node>
        <Node pos="r" depth="1" NCoef="0" IVar="0" Cut="2.6000000000000000e+01" cType="1" res="-8.2767382264137268e-03" rms="4.8627740144729614e-01" purity="4.7656807303428650e-01" nType="0">
          <Node pos="l" depth="2" NCoef="0" IVar="6" Cut="1.1681547760963440e-01" cType="1" res="1.5756991505622864e-01" rms="-nan" purity="4.8631891608238220e-01" nType="0">
            <Node pos="l" depth="3" NCoef="0" IVar="-1" Cut="0.0000000000000000e+00" cType="1" res="7.8945257700979710e-04" rms="4.8983377218246460e-01" purity="5.2033346891403198e-01" nType="-99"/>
            <Node pos="r" depth="3" NCoef="0" IVar="-1" Cut="0.0000000000000000e+00" cType="1" res="-5.9585408307611942e-03" rms="4.7665607929229736e-01" purity="3.8043969869613647e-01" nType="-99"/>
          </Node>
          <Node pos="r" depth="2" NCoef="0" IVar="-1" Cut="0.0000000000000000e+00" cType="1" res="-9.3696648254990578e-03" rms="4.7980591654777527e-01" purity="3.9457830786705017e-01" nType="-99"/>
        </Node>
      </Node>
    </BinaryTree>
    <BinaryTree type="DecisionTree" boostWeight="1.0000000000000000e+00" itree="21">
      <Node pos="s" depth="0" NCoef="0" IVar="9" Cut="3.0000000000000000e+00" cType="1" res="3.7572386208921671e-03" rms="1.4250932633876801e-01" purity="5.0000000000000000e-01" nType="0">
        <Node pos="l" depth="1" NCoef="0" IVar="3" Cut="3.4375000000000000e-01" cType="1" res="2.8057667077519000e-04" rms="4.3043228983879089e-01" purity="4.7949227690696716e-01" nType="0">
          <Node pos="l" depth="2" NCoef="0" IVar="2" Cut="9.0476191043853760e-01" cType="1" res="9.5686689019203186e-03" rms="4.2269822955131531e-01" purity="5.1282525062561035e-01" nType="0">
            <Node pos="l" depth="3" NCoef="0" IVar="-1" Cut="0.0000000000000000e+00" cType="1" res="2.0602907985448837e-02" rms="4.2695429921150208e-01" purity="7.4934297800064087e-01" nType="-99"/>
            <Node pos="r" depth="3" NCoef="0" IVar="-1" Cut="0.0000000000000000e+00" cType="1" res="-1.1804440291598439e-03" rms="4.9419593811035156e-01" purity="4.8823228478431702e-01" nType="-99"/>
          </Node>
          <Node pos="r" depth="2" NCoef="0" IVar="7" Cut="2.6157952379435301e-03" cType="1" res="-2.1153328940272331e-02" rms="4.4703456759452820e-01" purity="4.0257051587104797e-01" nType="0">
            <Node pos="l" depth="3" NCoef="0" IVar="-1" Cut="0.0000000000000000e+00" cType="1" res="2.1550024393945932e-03" rms="4.9133756756782532e-01" purity="5.0052171945571899e-01" nType="-99"/>
            <Node pos="r" depth="3" NCoef="0" IVar="-1" Cut="0.0000000000000000e+00" cType="1" res="-7.7318539842963219e-03" rms="4.7837564349174500e-01" purity="3.7726864218711853e-01" nType="-99"/>
          </Node>
        </Node>
        <Node pos="r" depth="1" NCoef="0" IVar="6" Cut="1.2882487475872040e-01" cType="1" res="4.0047258138656616e-02" rms="4.3582239747047424e-01" purity="6.4028352499008179e-01" nType="0">
          <Node pos="l" depth="2" NCoef="0" IVar="-1" Cut="0.0000000000000000e+00" cType="1" res="1.5543325804173946e-02" rms="4.3737846612930298e-01" purity="7.3086732625961304e-01" nType="-99"/>
          <Node pos="r" depth="2" NCoef="0" IVar="-1" Cut="0.0000000000000000e+00" cType="1" res="-5.4971565987216309e-05" rms="4.9599602818489075e-01" purity="5.1577842235565186e-01" nType="-99"/>
        </Node>
      </Node>
    </BinaryTree>
    <BinaryTree type="DecisionTree" boostWeight="1.0000000000000000e+00" itree="22">
      <Node pos="s" depth="0" NCoef="0" IVar="0" Cut="2.1000000000000000e+01" cType="1" res="2.3230857550515793e-05" rms="4.8416391015052795e-01" purity="5.0000000000000000e-01" nType="0">
        <Node pos="l" depth="1" NCoef="0" IVar="9" Cut="3.0000000000000000e+00" cType="1" res="5.0330287776887417e-03" rms="1.6516393423080444e-01" purity="5.2381312847137451e-01" nType="0">
          <Node pos="l" depth="2" NCoef="0" IVar="8" Cut="7.1428573131561279e-01" cType="1" res="0.0000000000000000e+00" rms="0.0000000000000000e+00" purity="5.0277286767959595e-01" nType="0">
            <Node pos="l" depth="3" NCoef="0" IVar="-1" Cut="0.0000000000000000e+00" cType="1" res="-3.5690001677721739e-03" rms="4.8705387115478516e-01" purity="4.4282239675521851e-01" nType="-99"/>
            <Node pos="r" depth="3" NCoef="0" IVar="-1" Cut="0.0000000000000000e+00" cType="1" res="4.4678286649286747e-03" rms="4.8647248744964600e-01" purity="5.6497174501419067e-01" nType="-99"/>
          </Node>
          <Node pos="r" depth="2" NCoef="0" IVar="8" Cut="4.1927084326744080e-01" cType="1" res="1.3144224067218602e-04" rms="-nan" purity="6.5177607536315918e-01" nType="0">
            <Node pos="l" depth="3" NCoef="0" IVar="-1" Cut="0.0000000000000000e+00" cType="1" res="2.4384374264627695e-03" rms="4.8694244027137756e-01" purity="5.6656128168106079e-01" nType="-99"/>
            <Node pos="r" depth="3" NCoef="0" IVar="-1" Cut="0.0000000000000000e+00" cType="1" res="1.8286505714058876e-02" rms="4.2767781019210815e-01" purity="7.4074071645736694e-01" nType="-99"/>
          </Node>
        </Node>
        <Node pos="r" depth="1" NCoef="0" IVar="0" Cut="2.7000000000000000e+01" cType="1" res="-2.3257348686456680e-02" rms="4.8484367132186890e-01" purity="4.3099397420883179e-01" nType="0">
          <Node pos="l" depth="2" NCoef="0" IVar="2" Cut="6.1904764175415039e-01" cType="1" res="1.9391118257772177e-04" rms="1.3923849910497665e-02" purity="4.4444444775581360e-01" nType="0">
            <Node pos="l" depth="3" NCoef="0" IVar="-1" Cut="0.0000000000000000e+00" cType="1" res="-8.1930663436651230e-03" rms="4.7615766525268555e-01" purity="4.0685379505157471e-01" nType="-99"/>
            <Node pos="r" depth="3" NCoef="0" IVar="-1" Cut="0.0000000000000000e+00" cType="1" res="-1.6553961904719472e-03" rms="4.9049860239028931e-01" purity="4.5806366205215454e-01" nType="-99"/>
          </Node>
          <Node pos="r" depth="2" NCoef="0" IVar="-1" Cut="0.0000000000000000e+00" cType="1" res="-9.4370478764176369e-03" rms="4.7766661643981934e-01" purity="3.8905683159828186e-01" nType="-99"/>
        </Node>
      </Node>
    </BinaryTree>
    <BinaryTree type="DecisionTree" boostWeight="1.0000000000000000e+00" itree="23">
      <Node pos="s" depth="0" NCoef="0" IVar="0" Cut="9.0000000000000000e+00" cType="1" res="2.2817614080850035e-05" rms="4.8401358723640442e-01" purity="5.0000000000000000e-01" nType="0">
        <Node pos="l" depth="1" NCoef="0" IVar="-1" Cut="0.0000000000000000e+00" cType="1" res="1.1367081664502621e-02" rms="4.6959310770034790e-01" purity="6.2201720476150513e-01" nType="-99"/>
        <Node pos="r" depth="1" NCoef="0" IVar="9" Cut="3.0000000000000000e+00" cType="1" res="3.0274870805442333e-03" rms="3.5494366288185120e-01" purity="4.9232277274131775e-01" nType="0">
          <Node pos="l" depth="2" NCoef="0" IVar="3" Cut="3.4375000000000000e-01" cType="1" res="-6.2093604356050491e-03" rms="4.8026823997497559e-01" purity="4.7238042950630188e-01" nType="0">
            <Node pos="l" depth="3" NCoef="0" IVar="-1" Cut="0.0000000000000000e+00" cType="1" res="2.2363679818226956e-05" rms="4.8986640572547913e-01" purity="5.0535851716995239e-01" nType="-99"/>
            <Node pos="r" depth="3" NCoef="0" IVar="-1" Cut="0.0000000000000000e+00" cType="1" res="-5.5820080451667309e-03" rms="4.8016810417175293e-01" purity="3.9382687211036682e-01" nType="-99"/>
          </Node>
          <Node pos="r" depth="2" NCoef="0" IVar="8" Cut="4.1927084326744080e-01" cType="1" res="2.7543973177671432e-02" rms="4.6254786849021912e-01" purity="6.3217836618423462e-01" nType="0">
            <Node pos="l" depth="3" NCoef="0" IVar="-1" Cut="0.0000000000000000e+00" cType="1" res="-8.1564148422330618e-04" rms="4.9090129137039185e-01" purity="5.4612547159194946e-01" nType="-99"/>
            <Node pos="r" depth="3" NCoef="0" IVar="-1" Cut="0.0000000000000000e+00" cType="1" res="1.4073013328015804e-02" rms="4.3459844589233398e-01" purity="7.2602277994155884e-01" nType="-99"/>
          </Node>
        </Node>
      </Node>
    </BinaryTree>
    <BinaryTree type="DecisionTree" boostWeight="1.0000000000000000e+00" itree="24">
      <Node pos="s" depth="0" NCoef="0" IVar="0" Cut="1.3000000000000000e+01" cType="1" res="2.1998888769303448e-05" rms="4.8390996456146240e-01" purity="5.0000000000000000e-01" nType="0">
        <Node pos="l" depth="1" NCoef="0" IVar="6" Cut="6.1383929103612900e-02" cType="1" res="3.3684954047203064e-02" rms="-nan" purity="5.7618707418441772e-01" nType="0">
          <Node pos="l" depth="2" NCoef="0" IVar="-1" Cut="0.0000000000000000e+00" cType="1" res="1.0441839694976807e-02" rms="4.6661248803138733e-01" purity="6.6268229484558105e-01" nType="-99"/>
          <Node pos="r" depth="2" NCoef="0" IVar="0" Cut="1.0000000000000000e+01" cType="1" res="9.1551914811134338e-03" rms="4.8147231340408325e-01" purity="5.3262704610824585e-01" nType="0">
            <Node pos="l" depth="3" NCoef="0" IVar="-1" Cut="0.0000000000000000e+00" cType="1" res="5.4958700202405453e-03" rms="4.7910496592521667e-01" purity="5.6852477788925171e-01" nType="-99"/>
            <Node pos="r" depth="3" NCoef="0" IVar="-1" Cut="0.0000000000000000e+00" cType="1" res="-3.7829717621207237e-04" rms="4.8266738653182983e-01" purity="5.0958687067031860e-01" nType="-99"/>
          </Node>
        </Node>
        <Node pos="r" depth="1" NCoef="0" IVar="0" Cut="2.6000000000000000e+01" cType="1" res="-6.8870913237333298e-03" rms="4.8583167791366577e-01" purity="4.7656807303428650e-01" nType="0">
          <Node pos="l" depth="2" NCoef="0" IVar="1" Cut="8.6495531722903252e-03" cType="1" res="1.5728943049907684e-01" rms="-nan" purity="4.8631891608238220e-01" nType="0">
            <Node pos="l" depth="3" NCoef="0" IVar="-1" Cut="0.0000000000000000e+00" cType="1" res="6.7641038913279772e-04" rms="4.9057409167289734e-01" purity="5.1144611835479736e-01" nType="-99"/>
            <Node pos="r" depth="3" NCoef="0" IVar="-1" Cut="0.0000000000000000e+00" cType="1" res="-3.8870123680680990e-03" rms="4.7691890597343445e-01" purity="4.3108919262886047e-01" nType="-99"/>
          </Node>
          <Node pos="r" depth="2" NCoef="0" IVar="-1" Cut="0.0000000000000000e+00" cType="1" res="-7.6110684312880039e-03" rms="4.7960659861564636e-01" purity="3.9457830786705017e-01" nType="-99"/>
        </Node>
      </Node>
    </BinaryTree>
    <BinaryTree type="DecisionTree" boostWeight="1.0000000000000000e+00" itree="25">
      <Node pos="s" depth="0" NCoef="0" IVar="9" Cut="3.0000000000000000e+00" cType="1" res="3.0782017856836319e-03" rms="1.4215734601020813e-01" purity="5.0000000000000000e-01" nType="0">
        <Node pos="l" depth="1" NCoef="0" IVar="8" Cut="5.2380955219268799e-01" cType="1" res="5.3871906129643321e-04" rms="4.3009290099143982e-01" purity="4.7949227690696716e-01" nType="0">
          <Node pos="l" depth="2" NCoef="0" IVar="0" Cut="1.6000000000000000e+01" cType="1" res="-3.2257974147796631e-02" rms="4.8060119152069092e-01" purity="3.7938863039016724e-01" nType="0">
            <Node pos="l" depth="3" NCoef="0" IVar="-1" Cut="0.0000000000000000e+00" cType="1" res="-8.6390264332294464e-03" rms="4.8333916068077087e-01" purity="3.9613971114158630e-01" nType="-99"/>
            <Node pos="r" depth="3" NCoef="0" IVar="-1" Cut="0.0000000000000000e+00" cType="1" res="-4.9488204531371593e-03" rms="4.7773662209510803e-01" purity="3.6303827166557312e-01" nType="-99"/>
          </Node>
          <Node pos="r" depth="2" NCoef="0" IVar="0" Cut="1.8000000000000000e+01" cType="1" res="1.8019665731117129e-04" rms="4.8742511868476868e-01" purity="4.9614766240119934e-01" nType="0">
            <Node pos="l" depth="3" NCoef="0" IVar="-1" Cut="0.0000000000000000e+00" cType="1" res="2.6272425893694162e-03" rms="4.8618924617767334e-01" purity="5.4008221626281738e-01" nType="-99"/>
            <Node pos="r" depth="3" NCoef="0" IVar="-1" Cut="0.0000000000000000e+00" cType="1" res="-2.9610807541757822e-03" rms="4.8846083879470825e-01" purity="4.4478428363800049e-01" nType="-99"/>
          </Node>
        </Node>
        <Node pos="r" depth="1" NCoef="0" IVar="6" Cut="1.2882487475872040e-01" cType="1" res="3.0997719615697861e-02" rms="4.3495634198188782e-01" purity="6.4028352499008179e-01" nType="0">
          <Node pos="l" depth="2" NCoef="0" IVar="-1" Cut="0.0000000000000000e+00" cType="1" res="1.2699568644165993e-02" rms="4.3689632415771484e-01" purity="7.3086732625961304e-01" nType="-99"/>
          <Node pos="r" depth="2" NCoef="0" IVar="-1" Cut="0.0000000000000000e+00" cType="1" res="-5.5617006728425622e-04" rms="4.9552810192108154e-01" purity="5.1577842235565186e-01" nType="-99"/>
        </Node>
      </Node>
    </BinaryTree>
    <BinaryTree type="DecisionTree" boostWeight="1.0000000000000000e+00" itree="26">
      <Node pos="s" depth="0" NCoef="0" IVar="0" Cut="9.0000000000000000e+00" cType="1" res="1.9566059563658200e-05" rms="4.8373657464981079e-01" purity="5.0000000000000000e-01" nType="0">
        <Node pos="l" depth="1" NCoef="0" IVar="-1" Cut="0.0000000000000000e+00" cType="1" res="9.4393892213702202e-03" rms="4.6947181224822998e-01" purity="6.2201720476150513e-01" nType="-99"/>
        <Node pos="r" depth="1" NCoef="0" IVar="9" Cut="3.0000000000000000e+00" cType="1" res="2.5796426925808191e-03" rms="3.5475343465805054e-01" purity="4.9232277274131775e-01" nType="0">
          <Node pos="l" depth="2" NCoef="0" IVar="8" Cut="7.1428573131561279e-01" cType="1" res="-5.0361352041363716e-03" rms="4.8013338446617126e-01" purity="4.7238042950630188e-01" nType="0">
            <Node pos="l" depth="3" NCoef="0" IVar="-1" Cut="0.0000000000000000e+00" cType="1" res="-3.7267915904521942e-03" rms="4.8510494828224182e-01" purity="4.2513835430145264e-01" nType="-99"/>
            <Node pos="r" depth="3" NCoef="0" IVar="-1" Cut="0.0000000000000000e+00" cType="1" res="5.7585828471928835e-04" rms="4.8837304115295410e-01" purity="5.1047390699386597e-01" nType="-99"/>
          </Node>
          <Node pos="r" depth="2" NCoef="0" IVar="8" Cut="4.1927084326744080e-01" cType="1" res="2.2937914356589317e-02" rms="4.6210065484046936e-01" purity="6.3217836618423462e-01" nType="0">
            <Node pos="l" depth="3" NCoef="0" IVar="-1" Cut="0.0000000000000000e+00" cType="1" res="-8.7712530512362719e-04" rms="4.9075269699096680e-01" purity="5.4612547159194946e-01" nType="-99"/>
            <Node pos="r" depth="3" NCoef="0" IVar="-1" Cut="0.0000000000000000e+00" cType="1" res="1.2103910557925701e-02" rms="4.3443837761878967e-01" purity="7.2602277994155884e-01" nType="-99"/>
          </Node>
        </Node>
      </Node>
    </BinaryTree>
    <BinaryTree type="DecisionTree" boostWeight="1.0000000000000000e+00" itree="27">
      <Node pos="s" depth="0" NCoef="0" IVar="0" Cut="2.1000000000000000e+01" cType="1" res="1.8887898477260023e-05" rms="4.8366475105285645e-01" purity="5.0000000000000000e-01" nType="0">
        <Node pos="l" depth="1" NCoef="0" IVar="8" Cut="7.1428573131561279e-01" cType="1" res="0.0000000000000000e+00" rms="0.0000000000000000e+00" purity="5.2381312847137451e-01" nType="0">
          <Node pos="l" depth="2" NCoef="0" IVar="9" Cut="3.0000000000000000e+00" cType="1" res="2.8760202694684267e-03" rms="1.8010701239109039e-01" purity="4.8943412303924561e-01" nType="0">
            <Node pos="l" depth="3" NCoef="0" IVar="-1" Cut="0.0000000000000000e+00" cType="1" res="-2.5980165228247643e-03" rms="4.8686295747756958e-01" purity="4.4282239675521851e-01" nType="-99"/>
            <Node pos="r" depth="3" NCoef="0" IVar="-1" Cut="0.0000000000000000e+00" cType="1" res="5.9624230489134789e-03" rms="4.6569329500198364e-01" purity="6.3960433006286621e-01" nType="-99"/>
          </Node>
          <Node pos="r" depth="2" NCoef="0" IVar="0" Cut="1.4000000000000000e+01" cType="1" res="1.8802896142005920e-02" rms="4.8412135243415833e-01" purity="5.6995373964309692e-01" nType="0">
            <Node pos="l" depth="3" NCoef="0" IVar="-1" Cut="0.0000000000000000e+00" cType="1" res="8.2303378731012344e-03" rms="4.6954685449600220e-01" purity="6.4710092544555664e-01" nType="-99"/>
            <Node pos="r" depth="3" NCoef="0" IVar="-1" Cut="0.0000000000000000e+00" cType="1" res="1.8216863973066211e-03" rms="4.9089312553405762e-01" purity="5.3168827295303345e-01" nType="-99"/>
          </Node>
        </Node>
        <Node pos="r" depth="1" NCoef="0" IVar="9" Cut="2.0000000000000000e+00" cType="1" res="-1.3650266453623772e-02" rms="4.6062836050987244e-01" purity="4.3099397420883179e-01" nType="0">
          <Node pos="l" depth="2" NCoef="0" IVar="0" Cut="2.5000000000000000e+01" cType="1" res="-2.8555601835250854e-02" rms="4.9026125669479370e-01" purity="4.0728029608726501e-01" nType="0">
            <Node pos="l" depth="3" NCoef="0" IVar="-1" Cut="0.0000000000000000e+00" cType="1" res="-2.9194259550422430e-03" rms="4.9557167291641235e-01" purity="4.3611049652099609e-01" nType="-99"/>
            <Node pos="r" depth="3" NCoef="0" IVar="-1" Cut="0.0000000000000000e+00" cType="1" res="-9.3565350398421288e-03" rms="4.8325875401496887e-01" purity="3.7263897061347961e-01" nType="-99"/>
          </Node>
          <Node pos="r" depth="2" NCoef="0" IVar="2" Cut="4.7619047760963440e-01" cType="1" res="-2.7148979716002941e-03" rms="4.7557011246681213e-01" purity="4.6641039848327637e-01" nType="0">
            <Node pos="l" depth="3" NCoef="0" IVar="-1" Cut="0.0000000000000000e+00" cType="1" res="-6.5161171369254589e-03" rms="4.7274193167686462e-01" purity="3.7904691696166992e-01" nType="-99"/>
            <Node pos="r" depth="3" NCoef="0" IVar="-1" Cut="0.0000000000000000e+00" cType="1" res="5.2549722604453564e-03" rms="4.7726297378540039e-01" purity="5.5490052700042725e-01" nType="-99"/>
          </Node>
        </Node>
      </Node>
    </BinaryTree>
    <BinaryTree type="DecisionTree" boostWeight="1.0000000000000000e+00" itree="28">
      <Node pos="s" depth="0" NCoef="0" IVar="0" Cut="1.2000000000000000e+01" cType="1" res="1.7300777471973561e-05" rms="4.8356428742408752e-01" purity="5.0000000000000000e-01" nType="0">
        <Node pos="l" depth="1" NCoef="0" IVar="6" Cut="1.0974702239036560e-01" cType="1" res="1.1123226583003998e-01" rms="-nan" purity="5.8624273538589478e-01" nType="0">
          <Node pos="l" depth="2" NCoef="0" IVar="8" Cut="7.1428573131561279e-01" cType="1" res="1.0663668811321259e-01" rms="-nan" purity="6.4716035127639771e-01" nType="0">
            <Node pos="l" depth="3" NCoef="0" IVar="-1" Cut="0.0000000000000000e+00" cType="1" res="5.2529168315231800e-03" rms="4.7347256541252136e-01" purity="6.1718255281448364e-01" nType="-99"/>
            <Node pos="r" depth="3" NCoef="0" IVar="-1" Cut="0.0000000000000000e+00" cType="1" res="9.0811057016253471e-03" rms="4.6149185299873352e-01" purity="6.7674565315246582e-01" nType="-99"/>
          </Node>
          <Node pos="r" depth="2" NCoef="0" IVar="-1" Cut="0.0000000000000000e+00" cType="1" res="-6.1102100880816579e-04" rms="4.8790252208709717e-01" purity="4.6676921844482422e-01" nType="-99"/>
        </Node>
        <Node pos="r" depth="1" NCoef="0" IVar="1" Cut="1.0974702425301075e-02" cType="1" res="-4.0672756731510162e-03" rms="4.8263221979141235e-01" purity="4.8090726137161255e-01" nType="0">
          <Node pos="l" depth="2" NCoef="0" IVar="2" Cut="9.0476191043853760e-01" cType="1" res="1.3064402155578136e-03" rms="4.8467317223548889e-01" purity="5.0698995590209961e-01" nType="0">
            <Node pos="l" depth="3" NCoef="0" IVar="-1" Cut="0.0000000000000000e+00" cType="1" res="1.0139172896742821e-02" rms="4.5215454697608948e-01" purity="6.7106175422668457e-01" nType="-99"/>
            <Node pos="r" depth="3" NCoef="0" IVar="-1" Cut="0.0000000000000000e+00" cType="1" res="-1.9476583693176508e-03" rms="4.9525743722915649e-01" purity="4.6947517991065979e-01" nType="-99"/>
          </Node>
          <Node pos="r" depth="2" NCoef="0" IVar="2" Cut="2.5223213434219360e-01" cType="1" res="-1.7383549362421036e-02" rms="4.7727647423744202e-01" purity="4.1627329587936401e-01" nType="0">
            <Node pos="l" depth="3" NCoef="0" IVar="-1" Cut="0.0000000000000000e+00" cType="1" res="-1.4731601113453507e-03" rms="4.7327050566673279e-01" purity="3.6815217137336731e-01" nType="-99"/>
            <Node pos="r" depth="3" NCoef="0" IVar="-1" Cut="0.0000000000000000e+00" cType="1" res="-1.0403919965028763e-02" rms="4.9127867817878723e-01" purity="5.5046981573104858e-01" nType="-99"/>
          </Node>
        </Node>
      </Node>
    </BinaryTree>
    <BinaryTree type="DecisionTree" boostWeight="1.0000000000000000e+00" itree="29">
      <Node pos="s" depth="0" NCoef="0" IVar="0" Cut="2.1000000000000000e+01" cType="1" res="1.8027369151241146e-05" rms="4.8345869779586792e-01" purity="5.0000000000000000e-01" nType="0">
        <Node pos="l" depth="1" NCoef="0" IVar="9" Cut="3.0000000000000000e+00" cType="1" res="3.3334800973534584e-03" rms="1.6458581387996674e-01" purity="5.2381312847137451e-01" nType="0">
          <Node pos="l" depth="2" NCoef="0" IVar="8" Cut="7.1428573131561279e-01" cType="1" res="0.0000000000000000e+00" rms="1.4235690236091614e-01" purity="5.0277286767959595e-01" nType="0">
            <Node pos="l" depth="3" NCoef="0" IVar="-1" Cut="0.0000000000000000e+00" cType="1" res="-2.4293945170938969e-03" rms="4.8683428764343262e-01" purity="4.4282239675521851e-01" nType="-99"/>
            <Node pos="r" depth="3" NCoef="0" IVar="-1" Cut="0.0000000000000000e+00" cType="1" res="3.0227310489863157e-03" rms="4.8620218038558960e-01" purity="5.6497174501419067e-01" nType="-99"/>
          </Node>
          <Node pos="r" depth="2" NCoef="0" IVar="8" Cut="4.1927084326744080e-01" cType="1" res="1.3058447802904993e-04" rms="1.6995319724082947e-01" purity="6.5177607536315918e-01" nType="0">
            <Node pos="l" depth="3" NCoef="0" IVar="-1" Cut="0.0000000000000000e+00" cType="1" res="1.7800437053665519e-03" rms="4.8629251122474670e-01" purity="5.6656128168106079e-01" nType="-99"/>
            <Node pos="r" depth="3" NCoef="0" IVar="-1" Cut="0.0000000000000000e+00" cType="1" res="1.2946872040629387e-02" rms="4.2732915282249451e-01" purity="7.4074071645736694e-01" nType="-99"/>
          </Node>
        </Node>
        <Node pos="r" depth="1" NCoef="0" IVar="9" Cut="2.0000000000000000e+00" cType="1" res="-1.1673021130263805e-02" rms="4.6044623851776123e-01" purity="4.3099397420883179e-01" nType="0">
          <Node pos="l" depth="2" NCoef="0" IVar="0" Cut="2.5000000000000000e+01" cType="1" res="-2.4759292602539062e-02" rms="4.9021813273429871e-01" purity="4.0728029608726501e-01" nType="0">
            <Node pos="l" depth="3" NCoef="0" IVar="-1" Cut="0.0000000000000000e+00" cType="1" res="-2.4383091367781162e-03" rms="4.9557909369468689e-01" purity="4.3611049652099609e-01" nType="-99"/>
            <Node pos="r" depth="3" NCoef="0" IVar="-1" Cut="0.0000000000000000e+00" cType="1" res="-8.2607083022594452e-03" rms="4.8325639963150024e-01" purity="3.7263897061347961e-01" nType="-99"/>
          </Node>
          <Node pos="r" depth="2" NCoef="0" IVar="2" Cut="4.7619047760963440e-01" cType="1" res="-2.4664578959345818e-03" rms="4.7522169351577759e-01" purity="4.6641039848327637e-01" nType="0">
            <Node pos="l" depth="3" NCoef="0" IVar="-1" Cut="0.0000000000000000e+00" cType="1" res="-5.5840355344116688e-03" rms="4.7268009185791016e-01" purity="3.7904691696166992e-01" nType="-99"/>
            <Node pos="r" depth="3" NCoef="0" IVar="-1" Cut="0.0000000000000000e+00" cType="1" res="4.4509638100862503e-03" rms="4.7706481814384460e-01" purity="5.5490052700042725e-01" nType="-99"/>
          </Node>
        </Node>
      </Node>
    </BinaryTree>
    <BinaryTree type="DecisionTree" boostWeight="1.0000000000000000e+00" itree="30">
      <Node pos="s" depth="0" NCoef="0" IVar="0" Cut="9.0000000000000000e+00" cType="1" res="1.7028569345711730e-05" rms="4.8337599635124207e-01" purity="5.0000000000000000e-01" nType="0">
        <Node pos="l" depth="1" NCoef="0" IVar="-1" Cut="0.0000000000000000e+00" cType="1" res="7.8279022127389908e-03" rms="4.6927174925804138e-01" purity="6.2201720476150513e-01" nType="-99"/>
        <Node pos="r" depth="1" NCoef="0" IVar="1" Cut="1.0974702425301075e-02" cType="1" res="-1.2393314391374588e-03" rms="4.7770416736602783e-01" purity="4.9232277274131775e-01" nType="0">
          <Node pos="l" depth="2" NCoef="0" IVar="2" Cut="9.0476191043853760e-01" cType="1" res="3.7034335546195507e-03" rms="4.7832030057907104e-01" purity="5.2071005105972290e-01" nType="0">
            <Node pos="l" depth="3" NCoef="0" IVar="-1" Cut="0.0000000000000000e+00" cType="1" res="9.3785813078284264e-03" rms="4.5001560449600220e-01" purity="6.7699366807937622e-01" nType="-99"/>
            <Node pos="r" depth="3" NCoef="0" IVar="-1" Cut="0.0000000000000000e+00" cType="1" res="-1.4161223080009222e-03" rms="4.9434980750083923e-01" purity="4.8181071877479553e-01" nType="-99"/>
          </Node>
          <Node pos="r" depth="2" NCoef="0" IVar="7" Cut="4.4642861932516098e-02" cType="1" res="-1.2789949774742126e-02" rms="4.7606113553047180e-01" purity="4.2598530650138855e-01" nType="0">
            <Node pos="l" depth="3" NCoef="0" IVar="-1" Cut="0.0000000000000000e+00" cType="1" res="-5.0346893258392811e-03" rms="4.7705090045928955e-01" purity="3.8141766190528870e-01" nType="-99"/>
            <Node pos="r" depth="3" NCoef="0" IVar="-1" Cut="0.0000000000000000e+00" cType="1" res="3.8026268593966961e-03" rms="4.8475363850593567e-01" purity="5.8340901136398315e-01" nType="-99"/>
          </Node>
        </Node>
      </Node>
    </BinaryTree>
    <BinaryTree type="DecisionTree" boostWeight="1.0000000000000000e+00" itree="31">
      <Node pos="s" depth="0" NCoef="0" IVar="0" Cut="9.0000000000000000e+00" cType="1" res="1.6474719814141281e-05" rms="4.8328888416290283e-01" purity="5.0000000000000000e-01" nType="0">
        <Node pos="l" depth="1" NCoef="0" IVar="-1" Cut="0.0000000000000000e+00" cType="1" res="7.0639546029269695e-03" rms="4.6928703784942627e-01" purity="6.2201720476150513e-01" nType="-99"/>
        <Node pos="r" depth="1" NCoef="0" IVar="0" Cut="2.1000000000000000e+01" cType="1" res="-2.0469364244490862e-03" rms="4.8408204317092896e-01" purity="4.9232277274131775e-01" nType="0">
          <Node pos="l" depth="2" NCoef="0" IVar="8" Cut="7.1428573131561279e-01" cType="1" res="1.2554685771465302e-01" rms="-nan" purity="5.1531749963760376e-01" nType="0">
            <Node pos="l" depth="3" NCoef="0" IVar="-1" Cut="0.0000000000000000e+00" cType="1" res="-1.2345471186563373e-03" rms="4.8217824101448059e-01" purity="4.8018136620521545e-01" nType="-99"/>
            <Node pos="r" depth="3" NCoef="0" IVar="-1" Cut="0.0000000000000000e+00" cType="1" res="2.6756974402815104e-03" rms="4.8596400022506714e-01" purity="5.6087231636047363e-01" nType="-99"/>
          </Node>
          <Node pos="r" depth="2" NCoef="0" IVar="9" Cut="2.0000000000000000e+00" cType="1" res="-1.0091478005051613e-02" rms="4.6031609177589417e-01" purity="4.3099397420883179e-01" nType="0">
            <Node pos="l" depth="3" NCoef="0" IVar="-1" Cut="0.0000000000000000e+00" cType="1" res="-4.4186101295053959e-03" rms="4.9018350243568420e-01" purity="4.0728029608726501e-01" nType="-99"/>
            <Node pos="r" depth="3" NCoef="0" IVar="-1" Cut="0.0000000000000000e+00" cType="1" res="-4.8764626262709498e-04" rms="4.7518247365951538e-01" purity="4.6641039848327637e-01" nType="-99"/>
          </Node>
        </Node>
      </Node>
    </BinaryTree>
    <BinaryTree type="DecisionTree" boostWeight="1.0000000000000000e+00" itree="32">
      <Node pos="s" depth="0" NCoef="0" IVar="9" Cut="3.0000000000000000e+00" cType="1" res="2.0351260900497437e-03" rms="1.4179010689258575e-01" purity="5.0000000000000000e-01" nType="0">
        <Node pos="l" depth="1" NCoef="0" IVar="8" Cut="5.2380955219268799e-01" cType="1" res="1.7745039076544344e-04" rms="4.2977300286293030e-01" purity="4.7949227690696716e-01" nType="0">
          <Node pos="l" depth="2" NCoef="0" IVar="0" Cut="1.6000000000000000e+01" cType="1" res="-2.3820966482162476e-02" rms="4.8056662082672119e-01" purity="3.7938863039016724e-01" nType="0">
            <Node pos="l" depth="3" NCoef="0" IVar="-1" Cut="0.0000000000000000e+00" cType="1" res="-6.9750966504216194e-03" rms="4.8324027657508850e-01" purity="3.9613971114158630e-01" nType="-99"/>
            <Node pos="r" depth="3" NCoef="0" IVar="-1" Cut="0.0000000000000000e+00" cType="1" res="-3.1280829571187496e-03" rms="4.7775727510452271e-01" purity="3.6303827166557312e-01" nType="-99"/>
          </Node>
          <Node pos="r" depth="2" NCoef="0" IVar="7" Cut="2.5809151120483875e-03" cType="1" res="3.9176191203296185e-03" rms="4.2757308483123779e-01" purity="4.9614766240119934e-01" nType="0">
            <Node pos="l" depth="3" NCoef="0" IVar="-1" Cut="0.0000000000000000e+00" cType="1" res="1.4321530470624566e-03" rms="4.8824480175971985e-01" purity="5.1732063293457031e-01" nType="-99"/>
            <Node pos="r" depth="3" NCoef="0" IVar="-1" Cut="0.0000000000000000e+00" cType="1" res="-3.7154257297515869e-03" rms="4.8314231634140015e-01" purity="4.3768939375877380e-01" nType="-99"/>
          </Node>
        </Node>
        <Node pos="r" depth="1" NCoef="0" IVar="2" Cut="3.8095238804817200e-01" cType="1" res="2.1223243325948715e-02" rms="4.3390825390815735e-01" purity="6.4028352499008179e-01" nType="0">
          <Node pos="l" depth="2" NCoef="0" IVar="-1" Cut="0.0000000000000000e+00" cType="1" res="1.7981494602281600e-04" rms="4.9050059914588928e-01" purity="5.5323588848114014e-01" nType="-99"/>
          <Node pos="r" depth="2" NCoef="0" IVar="-1" Cut="0.0000000000000000e+00" cType="1" res="1.1431786231696606e-02" rms="4.2120537161827087e-01" purity="7.5374150276184082e-01" nType="-99"/>
        </Node>
      </Node>
    </BinaryTree>
    <BinaryTree type="DecisionTree" boostWeight="1.0000000000000000e+00" itree="33">
      <Node pos="s" depth="0" NCoef="0" IVar="0" Cut="1.3000000000000000e+01" cType="1" res="1.4255255337047856e-05" rms="4.8319849371910095e-01" purity="5.0000000000000000e-01" nType="0">
        <Node pos="l" depth="1" NCoef="0" IVar="6" Cut="6.1383929103612900e-02" cType="1" res="3.3308565616607666e-02" rms="-nan" purity="5.7618707418441772e-01" nType="0">
          <Node pos="l" depth="2" NCoef="0" IVar="-1" Cut="0.0000000000000000e+00" cType="1" res="6.5577034838497639e-03" rms="4.6650311350822449e-01" purity="6.6268229484558105e-01" nType="-99"/>
          <Node pos="r" depth="2" NCoef="0" IVar="6" Cut="1.2885974347591400e-01" cType="1" res="3.5396464169025421e-02" rms="6.3626962900161743e-01" purity="5.3262704610824585e-01" nType="0">
            <Node pos="l" depth="3" NCoef="0" IVar="-1" Cut="0.0000000000000000e+00" cType="1" res="3.0337881762534380e-03" rms="4.7861397266387939e-01" purity="5.8214676380157471e-01" nType="-99"/>
            <Node pos="r" depth="3" NCoef="0" IVar="-1" Cut="0.0000000000000000e+00" cType="1" res="-2.0056450739502907e-03" rms="4.8375850915908813e-01" purity="4.3670439720153809e-01" nType="-99"/>
          </Node>
        </Node>
        <Node pos="r" depth="1" NCoef="0" IVar="9" Cut="2.0000000000000000e+00" cType="1" res="-5.7415536139160395e-04" rms="4.1390386223793030e-01" purity="4.7656807303428650e-01" nType="0">
          <Node pos="l" depth="2" NCoef="0" IVar="0" Cut="2.5000000000000000e+01" cType="1" res="-1.2159542180597782e-02" rms="4.9543151259422302e-01" purity="4.6505087614059448e-01" nType="0">
            <Node pos="l" depth="3" NCoef="0" IVar="-1" Cut="0.0000000000000000e+00" cType="1" res="-1.4228448271751404e-03" rms="4.9809843301773071e-01" purity="4.8665699362754822e-01" nType="-99"/>
            <Node pos="r" depth="3" NCoef="0" IVar="-1" Cut="0.0000000000000000e+00" cType="1" res="-7.0298234932124615e-03" rms="4.8325553536415100e-01" purity="3.7263897061347961e-01" nType="-99"/>
          </Node>
          <Node pos="r" depth="2" NCoef="0" IVar="8" Cut="6.5885418653488159e-01" cType="1" res="3.1050576362758875e-03" rms="4.7450003027915955e-01" purity="4.8726841807365417e-01" nType="0">
            <Node pos="l" depth="3" NCoef="0" IVar="-1" Cut="0.0000000000000000e+00" cType="1" res="-1.9935772288590670e-03" rms="4.8210740089416504e-01" purity="4.4960394501686096e-01" nType="-99"/>
            <Node pos="r" depth="3" NCoef="0" IVar="-1" Cut="0.0000000000000000e+00" cType="1" res="1.9388066604733467e-02" rms="4.2064508795738220e-01" purity="7.3843353986740112e-01" nType="-99"/>
          </Node>
        </Node>
      </Node>
    </BinaryTree>
    <BinaryTree type="DecisionTree" boostWeight="1.0000000000000000e+00" itree="34">
      <Node pos="s" depth="0" NCoef="0" IVar="9" Cut="3.0000000000000000e+00" cType="1" res="1.9417140865698457e-03" rms="1.4172834157943726e-01" purity="5.0000000000000000e-01" nType="0">
        <Node pos="l" depth="1" NCoef="0" IVar="8" Cut="5.2380955219268799e-01" cType="1" res="2.0565303566399962e-04" rms="4.2964965105056763e-01" purity="4.7949227690696716e-01" nType="0">
          <Node pos="l" depth="2" NCoef="0" IVar="0" Cut="1.6000000000000000e+01" cType="1" res="-2.0963268354535103e-02" rms="4.8054724931716919e-01" purity="3.7938863039016724e-01" nType="0">
            <Node pos="l" depth="3" NCoef="0" IVar="-1" Cut="0.0000000000000000e+00" cType="1" res="-6.2882951460778713e-03" rms="4.8321926593780518e-01" purity="3.9613971114158630e-01" nType="-99"/>
            <Node pos="r" depth="3" NCoef="0" IVar="-1" Cut="0.0000000000000000e+00" cType="1" res="-2.6228777132928371e-03" rms="4.7775849699974060e-01" purity="3.6303827166557312e-01" nType="-99"/>
          </Node>
          <Node pos="r" depth="2" NCoef="0" IVar="7" Cut="2.5809151120483875e-03" cType="1" res="3.5364243667572737e-03" rms="4.2745935916900635e-01" purity="4.9614766240119934e-01" nType="0">
            <Node pos="l" depth="3" NCoef="0" IVar="-1" Cut="0.0000000000000000e+00" cType="1" res="1.2984902132302523e-03" rms="4.8807841539382935e-01" purity="5.1732063293457031e-01" nType="-99"/>
            <Node pos="r" depth="3" NCoef="0" IVar="-1" Cut="0.0000000000000000e+00" cType="1" res="-3.4598677884787321e-03" rms="4.8311698436737061e-01" purity="4.3768939375877380e-01" nType="-99"/>
          </Node>
        </Node>
        <Node pos="r" depth="1" NCoef="0" IVar="6" Cut="1.2882487475872040e-01" cType="1" res="1.9527431577444077e-02" rms="4.3369856476783752e-01" purity="6.4028352499008179e-01" nType="0">
          <Node pos="l" depth="2" NCoef="0" IVar="-1" Cut="0.0000000000000000e+00" cType="1" res="8.6876004934310913e-03" rms="4.3581965565681458e-01" purity="7.3086732625961304e-01" nType="-99"/>
          <Node pos="r" depth="2" NCoef="0" IVar="-1" Cut="0.0000000000000000e+00" cType="1" res="-1.0226357262581587e-03" rms="4.9483969807624817e-01" purity="5.1577842235565186e-01" nType="-99"/>
        </Node>
      </Node>
    </BinaryTree>
    <BinaryTree type="DecisionTree" boostWeight="1.0000000000000000e+00" itree="35">
      <Node pos="s" depth="0" NCoef="0" IVar="0" Cut="1.6000000000000000e+01" cType="1" res="1.4453549738391303e-05" rms="4.8304325342178345e-01" purity="5.0000000000000000e-01" nType="0">
        <Node pos="l" depth="1" NCoef="0" IVar="6" Cut="6.1383929103612900e-02" cType="1" res="4.4715134426951408e-03" rms="1.4105930924415588e-02" purity="5.5023211240768433e-01" nType="0">
          <Node pos="l" depth="2" NCoef="0" IVar="0" Cut="1.2000000000000000e+01" cType="1" res="2.1988259628415108e-02" rms="4.7706341743469238e-01" purity="6.1844742298126221e-01" nType="0">
            <Node pos="l" depth="3" NCoef="0" IVar="-1" Cut="0.0000000000000000e+00" cType="1" res="6.2515139579772949e-03" rms="4.6314701437950134e-01" purity="6.7367750406265259e-01" nType="-99"/>
            <Node pos="r" depth="3" NCoef="0" IVar="-1" Cut="0.0000000000000000e+00" cType="1" res="3.7786364555358887e-03" rms="4.8500055074691772e-01" purity="5.8605867624282837e-01" nType="-99"/>
          </Node>
          <Node pos="r" depth="2" NCoef="0" IVar="7" Cut="2.2321429103612900e-02" cType="1" res="5.0630308687686920e-03" rms="6.0476970672607422e-01" purity="5.0986409187316895e-01" nType="0">
            <Node pos="l" depth="3" NCoef="0" IVar="-1" Cut="0.0000000000000000e+00" cType="1" res="-1.3613657793030143e-03" rms="4.8522588610649109e-01" purity="4.7385048866271973e-01" nType="-99"/>
            <Node pos="r" depth="3" NCoef="0" IVar="-1" Cut="0.0000000000000000e+00" cType="1" res="5.9636058285832405e-03" rms="4.6148112416267395e-01" purity="6.4903354644775391e-01" nType="-99"/>
          </Node>
        </Node>
        <Node pos="r" depth="1" NCoef="0" IVar="9" Cut="2.0000000000000000e+00" cType="1" res="-2.9972610063850880e-03" rms="4.3950805068016052e-01" purity="4.6209767460823059e-01" nType="0">
          <Node pos="l" depth="2" NCoef="0" IVar="0" Cut="2.6000000000000000e+01" cType="1" res="-1.5405550599098206e-02" rms="4.9470943212509155e-01" purity="4.4482117891311646e-01" nType="0">
            <Node pos="l" depth="3" NCoef="0" IVar="-1" Cut="0.0000000000000000e+00" cType="1" res="-2.2281338460743427e-03" rms="4.9766278266906738e-01" purity="4.6335512399673462e-01" nType="-99"/>
            <Node pos="r" depth="3" NCoef="0" IVar="-1" Cut="0.0000000000000000e+00" cType="1" res="-7.1344128809869289e-03" rms="4.8123523592948914e-01" purity="3.6441257596015930e-01" nType="-99"/>
          </Node>
          <Node pos="r" depth="2" NCoef="0" IVar="8" Cut="6.2416297197341919e-01" cType="1" res="3.1982553191483021e-03" rms="4.7516104578971863e-01" purity="4.8055499792098999e-01" nType="0">
            <Node pos="l" depth="3" NCoef="0" IVar="-1" Cut="0.0000000000000000e+00" cType="1" res="-1.9295365782454610e-03" rms="4.8128375411033630e-01" purity="4.3517023324966431e-01" nType="-99"/>
            <Node pos="r" depth="3" NCoef="0" IVar="-1" Cut="0.0000000000000000e+00" cType="1" res="1.2094559147953987e-02" rms="4.4789052009582520e-01" purity="6.6783463954925537e-01" nType="-99"/>
          </Node>
        </Node>
      </Node>
    </BinaryTree>
    <BinaryTree type="DecisionTree" boostWeight="1.0000000000000000e+00" itree="36">
      <Node pos="s" depth="0" NCoef="0" IVar="0" Cut="9.0000000000000000e+00" cType="1" res="1.3999335351400077e-05" rms="4.8296967148780823e-01" purity="5.0000000000000000e-01" nType="0">
        <Node pos="l" depth="1" NCoef="0" IVar="-1" Cut="0.0000000000000000e+00" cType="1" res="6.0736266896128654e-03" rms="4.6898883581161499e-01" purity="6.2201720476150513e-01" nType="-99"/>
        <Node pos="r" depth="1" NCoef="0" IVar="6" Cut="2.4181548506021500e-03" cType="1" res="-8.7019772036001086e-04" rms="4.7734379768371582e-01" purity="4.9232277274131775e-01" nType="0">
          <Node pos="l" depth="2" NCoef="0" IVar="0" Cut="2.3000000000000000e+01" cType="1" res="-8.6624706164002419e-03" rms="4.9420651793479919e-01" purity="4.8406732082366943e-01" nType="0">
            <Node pos="l" depth="3" NCoef="0" IVar="-1" Cut="0.0000000000000000e+00" cType="1" res="-7.0601608604192734e-04" rms="4.9666181206703186e-01" purity="5.1705294847488403e-01" nType="-99"/>
            <Node pos="r" depth="3" NCoef="0" IVar="-1" Cut="0.0000000000000000e+00" cType="1" res="-4.9216891638934612e-03" rms="4.8663294315338135e-01" purity="3.8752198219299316e-01" nType="-99"/>
          </Node>
          <Node pos="r" depth="2" NCoef="0" IVar="1" Cut="5.8736121281981468e-03" cType="1" res="4.1998331435024738e-03" rms="4.7189649939537048e-01" purity="4.9900394678115845e-01" nType="0">
            <Node pos="l" depth="3" NCoef="0" IVar="-1" Cut="0.0000000000000000e+00" cType="1" res="2.1552558988332748e-02" rms="4.0630003809928894e-01" purity="7.7851086854934692e-01" nType="-99"/>
            <Node pos="r" depth="3" NCoef="0" IVar="-1" Cut="0.0000000000000000e+00" cType="1" res="-1.5682509401813149e-03" rms="4.8222181200981140e-01" purity="4.6258085966110229e-01" nType="-99"/>
          </Node>
        </Node>
      </Node>
    </BinaryTree>
    <BinaryTree type="DecisionTree" boostWeight="1.0000000000000000e+00" itree="37">
      <Node pos="s" depth="0" NCoef="0" IVar="0" Cut="1.2000000000000000e+01" cType="1" res="1.6743253581807949e-05" rms="4.8285102844238281e-01" purity="5.0000000000000000e-01" nType="0">
        <Node pos="l" depth="1" NCoef="0" IVar="6" Cut="1.0974702239036560e-01" cType="1" res="1.1069718748331070e-01" rms="-nan" purity="5.8624273538589478e-01" nType="0">
          <Node pos="l" depth="2" NCoef="0" IVar="9" Cut="2.0000000000000000e+00" cType="1" res="1.2205537408590317e-02" rms="3.2529899477958679e-01" purity="6.4716035127639771e-01" nType="0">
            <Node pos="l" depth="3" NCoef="0" IVar="-1" Cut="0.0000000000000000e+00" cType="1" res="2.4519918952137232e-03" rms="4.7850501537322998e-01" purity="6.4275205135345459e-01" nType="-99"/>
